{
    "bias1": [
        [
            0.024300650075118585
        ],
        [
            0.043719519849147744
        ],
        [
            0.0029189552704000374
        ],
        [
            0.022187738785407897
        ],
        [
            -0.006538133449611131
        ],
        [
            0.0034237222978772226
        ],
        [
            -0.041784425003680674
        ],
        [
            -0.012327856837461057
        ],
        [
            0.001364809748018708
        ],
        [
            -0.02087574615269218
        ],
        [
            0.003837663844773836
        ],
        [
            0.04680502190254428
        ],
        [
            0.02778119640067428
        ],
        [
            -0.005063682522449915
        ],
        [
            0.006255198749529941
        ],
        [
            0.02578453559319584
        ],
        [
            0.02947415354700325
        ],
        [
            -0.012271035272584814
        ],
        [
            0.003798273278233689
        ],
        [
            0.04135567723008993
        ],
        [
            0.014709764384140775
        ],
        [
            -0.01989631840669948
        ],
        [
            -0.029441093896470576
        ],
        [
            0.05045902076291016
        ],
        [
            0.08307131223615309
        ],
        [
            0.08440618767754253
        ],
        [
            0.006558490504369253
        ],
        [
            -0.007653695519405345
        ],
        [
            -0.003075747897878188
        ],
        [
            -0.04711903620192683
        ],
        [
            0.056036027133651814
        ],
        [
            0.007798243814672256
        ],
        [
            0.019850874727077052
        ],
        [
            -0.011193475840510326
        ],
        [
            -0.0176035320103005
        ],
        [
            0.082093478158597
        ],
        [
            0.03282679302703374
        ],
        [
            -0.005795408600007273
        ],
        [
            0.10042474674007129
        ],
        [
            -0.007944497749372656
        ],
        [
            0.055102370841484574
        ],
        [
            0.009060188755639102
        ],
        [
            -0.04701587327376655
        ],
        [
            0.02064145847990051
        ],
        [
            0.032928442598822195
        ],
        [
            0.004072049847271304
        ],
        [
            0.009776939162632366
        ],
        [
            0.005427941720042797
        ],
        [
            0.051744419661954
        ],
        [
            0.001468705683009638
        ],
        [
            -0.033576134346812524
        ],
        [
            -0.019740459710479163
        ],
        [
            0.016895155968919225
        ],
        [
            0.013187207255409394
        ],
        [
            -0.004278562408565229
        ],
        [
            -0.022229936266901146
        ],
        [
            -0.000881149971710979
        ],
        [
            -0.014003446237705632
        ],
        [
            0.01671370194585007
        ],
        [
            -0.0020469454137981512
        ],
        [
            0.0001282853816552756
        ],
        [
            -0.019497448082214146
        ],
        [
            -0.0160425694332481
        ],
        [
            -0.01148391019538146
        ],
        [
            0.04392741710664816
        ],
        [
            -0.005766038410084052
        ],
        [
            0.005018755940283954
        ],
        [
            0.034753430549768066
        ],
        [
            -0.006975245701930405
        ],
        [
            0.031655292234345024
        ],
        [
            0.05807346444069616
        ],
        [
            0.020878196168035237
        ],
        [
            0.03851966953608257
        ],
        [
            0.07706361869147654
        ],
        [
            0.020477799218493593
        ],
        [
            0.018210291533279195
        ],
        [
            0.03739881570811399
        ],
        [
            0.03554753816839489
        ],
        [
            -0.008288063624556235
        ],
        [
            0.006983001174260692
        ],
        [
            0.007698274680911518
        ],
        [
            0.00961709517890127
        ],
        [
            0.05426193327039607
        ],
        [
            -0.001976523549348481
        ],
        [
            0.009205325389788632
        ],
        [
            -0.015491996782621689
        ],
        [
            0.033442434284413416
        ],
        [
            0.019664700047976522
        ],
        [
            0.01253918366012332
        ],
        [
            0.032598378593145974
        ],
        [
            0.057137896937731546
        ],
        [
            0.0487113029018626
        ],
        [
            0.002009229406411704
        ],
        [
            0.011107715690809837
        ],
        [
            -0.0030273960341088463
        ],
        [
            0.05127414997757175
        ],
        [
            -0.010565055315049627
        ],
        [
            0.08434993009964435
        ],
        [
            0.007527346787867531
        ],
        [
            -0.01973131466018963
        ]
    ],
    "bias2": [
        [
            -0.0021460859046857263
        ],
        [
            0.01782577778793602
        ],
        [
            0.02506593374467348
        ],
        [
            -0.04074562562792379
        ]
    ],
    "classes": [
        "high",
        "medium",
        "low"
    ],
    "weight1": [
        [
            0.020870235844133847,
            -0.0014907819289993283,
            -0.005281717522634557,
            -0.006102904014060281,
            0.005095628257200829,
            -0.02466038548992364,
            -0.02989183644159173,
            -0.00850884136721696,
            -0.002655178941317819,
            0.005325557361097494,
            0.01932447039898039,
            -0.02644697699686534,
            -0.003224172040135075,
            0.0007862386608172699,
            0.12409118980898559,
            -0.011542113227632577,
            -0.007840853426554543,
            -0.010423582700334546,
            0.007768683944343765,
            0.002413726046934061,
            -0.008719069906286365,
            0.01373435896423899,
            0.012982787703470437,
            0.0016105172987945207,
            0.008068141350025822,
            -0.003659210399895159,
            -0.0018597328410521307,
            -0.009357694342590688,
            0.005140380319611436,
            0.0024683839175479046,
            -0.0022898253097516632,
            -0.00427281642169762,
            -0.01167699021234736,
            -0.004485175917444714,
            0.004401447943072191,
            -0.002639939004998694,
            -0.006546321278851353,
            -0.003501412923717885,
            0.018885143636941555,
            0.00722980414894024,
            -0.007266819289259785,
            -0.004249507433346939,
            -0.0028448007300069487,
            0.019038035201969214,
            0.0005080775477602897,
            -0.004082834599850684,
            0.004196276712517508,
            0.016379524328586057,
            0.00902085064068789,
            0.005541200511208543,
            -0.0028438667023305336,
            0.00288362986963435,
            -0.013938474996031083,
            0.0011333549833726514,
            -0.0004326510537705805,
            0.020394567253486515,
            0.008389834138745049,
            0.00841424845476965,
            -0.0017671537836597864,
            0.012818292140249765,
            -0.008440751768232458,
            0.01715546375983431,
            0.012475844681367925,
            -0.007786191562178524,
            0.00026215442917259423,
            0.004134101538924462,
            0.01360341574035712,
            0.01397562529853557,
            0.02585301019242945,
            -0.010894855215604822,
            -0.015381556196914191,
            -0.005675489215330161,
            0.008782159558955008,
            0.007864916852896328,
            -0.0026892204294727507,
            -0.013671053879628973,
            0.001564742081217708,
            0.01609900754194405,
            0.00107840448795741,
            0.007314830649982402,
            0.005595979689768002,
            -0.004520873705109655,
            0.006492396117384267,
            0.0015872234562728828,
            0.009329543678455534,
            0.007596214792644129,
            -0.004752233476915953,
            0.002835219720590898,
            -0.00042678581120645726,
            0.015921621286620623,
            0.014803208037930237,
            0.0018515641748394385,
            -0.006270990846209663,
            -0.004100182208699374,
            0.004234943540641129,
            0.0054001828909870184,
            -0.00878700052135439,
            0.0027230904341853184,
            -0.006200008439481292,
            0.006980320340722189,
            0.004366794496593922,
            0.01193979589491714,
            0.004034916417908,
            0.00530495464650502,
            -0.01094911845741042,
            0.005660704828129161,
            0.0067747339250970985,
            -0.009537006018079346,
            0.004684361417151613,
            -0.005669390883414891,
            -0.019576743104356354,
            0.002960956463589799,
            0.008461606475850335,
            -0.004597903281222029,
            -0.0023401101152477305,
            -0.01083571224653147,
            0.001178485215040128,
            -0.017380266412719367,
            0.01121417708235664,
            0.004089005379368278,
            -0.0007893701132500521,
            -0.0021889197568931225,
            0.01762737797072278,
            0.013825447590658537,
            -0.020059130937963274,
            0.023475549555968575
        ],
        [
            0.02065524324419675,
            0.007758852678452451,
            -0.011992680323351861,
            0.01301218888814791,
            7.180900560463843e-06,
            -0.0033879902369262013,
            -0.08375709430256177,
            0.012056801438412654,
            0.0012036168628893787,
            0.0029214593033339204,
            0.01933266240758734,
            -0.018167865692535534,
            0.008018610318713447,
            0.004844408696949148,
            0.07118602709053269,
            -0.0027609348275570897,
            -0.004801165608673312,
            0.010155332439656458,
            0.008809278100441088,
            0.003752006919699555,
            0.00931904699677312,
            0.014724638337631307,
            0.014961534039100492,
            0.009200508888370545,
            -0.0031011677351806,
            -0.030961897810535825,
            0.012598211709129139,
            0.02186979646974258,
            0.013570411035817652,
            -0.013619920964389545,
            0.003014288273747362,
            0.0008942258304304656,
            -0.014359651282693262,
            0.0014164011598442304,
            0.007580857501178201,
            -0.013629121112907025,
            0.006866727326585397,
            -0.009690863320012722,
            0.013492948957425668,
            0.014764079024110423,
            -0.006413869589746525,
            0.0065140747260621105,
            0.02628573300240502,
            -0.018243726352607632,
            -0.00646916688254908,
            0.017555704634133182,
            0.03382409278571005,
            0.006663439189955098,
            0.009593456531915727,
            -5.317673460105513e-05,
            0.006590119329571819,
            0.0006415462221538108,
            0.003141845562376649,
            0.001180719723720979,
            -0.0019747861442788797,
            0.013512284465289104,
            0.0050318481343532605,
            0.01948368530397313,
            0.008045316702936534,
            0.006462967810189504,
            0.012179037444840763,
            0.006786106635085015,
            0.006321275628140389,
            -0.015264872403166086,
            0.020753172667047397,
            -0.0003177829617908883,
            0.02758742280105588,
            -0.004763671777808748,
            0.0107577128549708,
            0.002913631519801049,
            0.00602319280295629,
            0.006412787727005592,
            0.014971699131776334,
            0.016995847425723094,
            -0.010733233714193362,
            0.017312204278779858,
            -0.0012443185974832067,
            0.028705547350222183,
            -0.02919375542858627,
            -0.015522117895809269,
            -0.007350446058109171,
            -0.01256440867803488,
            -0.006812418272889589,
            0.015901936200632023,
            0.00024962987613215773,
            -0.009912133036860362,
            -0.0018911797205580527,
            -0.005865239388215925,
            -0.009717317724407598,
            0.01313712498920069,
            0.006967144128412458,
            -0.004349566829552278,
            0.008082490354365045,
            0.009831851514753315,
            0.016169495988573,
            0.009406144532706738,
            -0.0006891660617603505,
            0.009634862681900343,
            -0.012197443969790327,
            0.024493686490613974,
            0.012155242132096166,
            9.638907928959701e-05,
            -0.007003985049212547,
            0.00017602120088941218,
            0.0024266944108179457,
            0.014654890236053153,
            0.008820168566521928,
            0.01792158208975567,
            0.002309979139028926,
            -0.0030102630950186423,
            -0.01854763306140044,
            0.009853565439544168,
            -0.01674195807618932,
            0.012417513138358557,
            -0.011706587432614879,
            0.005430985934617554,
            -0.003376564865985221,
            -0.029840443009368108,
            -0.00861316360776042,
            0.006747115256879724,
            0.004441915205597295,
            -0.0036221544506428627,
            0.014092639015706437,
            -0.019781721021881478,
            -0.0008986148051018719,
            0.010443404649025784
        ],
        [
            -0.029164844402054815,
            0.018141293735571384,
            0.0036633201454005825,
            -0.011679888219667327,
            0.023878688321995464,
            0.008412354496285931,
            0.0003654406601823941,
            -0.008390009432986883,
            -0.0003859867122497577,
            -0.015256803162293577,
            0.005630235493262026,
            -0.005192597141034142,
            0.0013404819655462314,
            0.010786554221407648,
            -0.0003085610348982467,
            -0.00027254627415134125,
            0.0027649930482218366,
            -0.004776981544391025,
            0.005254863502273796,
            0.020798208151574574,
            0.012403224447002276,
            0.0136642559906718,
            -0.008772815189181883,
            -0.0033132551851995083,
            -0.0144087602429184,
            0.015903704153717918,
            0.00031736017733172947,
            0.013998439424809859,
            -0.007819116826868007,
            -0.00812779568682719,
            -0.0002797435286768323,
            0.015351513193268366,
            -0.000247983171762283,
            0.0021112475500771675,
            -0.001160949201067367,
            0.001771877202759604,
            -0.012398694579436856,
            -0.0006389429428691497,
            0.002949377910908297,
            -0.002888270259844895,
            0.0011706597008251103,
            -0.00804077581067827,
            -0.0020790746746357077,
            -0.004207613228324444,
            0.004173020049748626,
            0.012662874356178862,
            -0.004739084777713937,
            0.004410890358424221,
            0.020657833202188343,
            -0.011852410404920842,
            -0.009749932905753074,
            -0.011910959690510602,
            -0.002790977215432903,
            0.0149944964589506,
            0.007807853462900135,
            -0.013637777870525536,
            0.006218035043055724,
            -0.008318070761694895,
            0.009785907667617418,
            0.0030526704024401077,
            0.011567768512716263,
            -0.007847436832119596,
            0.027203387431651415,
            0.007390361120577223,
            0.005097587573265069,
            -0.004953027831418372,
            -0.002440803345321314,
            -0.008677686776235904,
            -0.0036797987119923147,
            -0.010292723305917718,
            0.0028267571224842025,
            -0.0054018154650677845,
            0.0026251687828057067,
            0.007241191590260543,
            -0.008506619026624775,
            0.011200361305367966,
            -0.0036134137581112363,
            0.011552878860882252,
            0.004381663472912375,
            0.017360295723244185,
            -0.009970197955296824,
            -0.0010679398677922512,
            0.013280298205319943,
            -0.0061803684768157886,
            -0.02347719594887684,
            -0.022531075506833444,
            -0.028817112385301994,
            -0.02114163921916826,
            -0.001560657137322723,
            0.011551286427827807,
            -0.0038713178042364313,
            0.003235273536014321,
            0.0028597678146295414,
            0.004900657300383203,
            -0.0016819883974471597,
            -0.0029757978436693168,
            0.0008589351412287966,
            -0.006944658868390197,
            0.010101271773347244,
            0.009200179332477632,
            0.0021380950650849804,
            0.014190946748995067,
            -0.007013444262571769,
            -0.00251307138534797,
            0.0015626385027008327,
            -0.001902210250848615,
            -0.0016282214733108157,
            -0.006724480387865963,
            -0.008680130909929328,
            0.0263082103401354,
            -0.020881448009285465,
            0.0012049181927069087,
            -0.002364369518129867,
            0.004958109549010067,
            0.0037025221837917203,
            -0.023010176830506265,
            0.005674933691666435,
            0.0032427424344842106,
            0.0002186283662655242,
            -0.004686738162778914,
            0.005635591490772198,
            -0.00662185096120457,
            0.013906032911155141,
            0.004195614602341201,
            0.027477231305689465,
            -0.00918156484332587
        ],
        [
            -0.015313519376188418,
            0.009393633000998249,
            0.008527040617252863,
            0.002599337996687674,
            -0.009236317725274317,
            -0.0036221776610030213,
            -0.05144129629910608,
            -0.0036834725452206275,
            0.0014950579756174828,
            -0.0014147206465866154,
            0.005454770722056637,
            -0.0026752934304945498,
            -0.01426555420520532,
            0.019925336509250376,
            0.043422681852591405,
            0.004776101818175573,
            -0.0194745048804203,
            0.008802056582168986,
            -0.016615990769346504,
            0.009730462889215558,
            0.0031430256530435604,
            0.024602755437837763,
            -0.015583585536417416,
            0.001288116510261913,
            0.0020839362950077203,
            0.01511216951492987,
            -0.0029948123190374288,
            0.0008646440652428742,
            -0.02108479825074278,
            -0.008438185287536622,
            0.006761896531692511,
            0.014793556426783103,
            -0.007374267769751935,
            0.018045310424005707,
            0.02364351294769976,
            -0.005026933349534362,
            -0.021889292985597764,
            -0.015120753927718437,
            -0.004281883364443462,
            0.015235538828573144,
            -0.0014541822012581363,
            -0.018696741136088012,
            -4.192126256152601e-05,
            0.01395894233998499,
            -0.003748046873026527,
            -0.004002991270925996,
            0.024042945927011825,
            0.0017278611033419314,
            -0.004451701947829888,
            0.00473542888315311,
            0.002826557094082331,
            -0.0037641856191753522,
            0.007664154853733366,
            0.01340275505398496,
            0.013139077778112027,
            0.004487836798807444,
            0.01146900376399483,
            -0.002338735080269932,
            0.005860198407646862,
            0.007818623871417777,
            0.006246734313973648,
            0.020143283858202823,
            0.006628459167408221,
            -0.02139750493777818,
            -0.010407935314464314,
            0.01676566150704403,
            0.0001838732025043859,
            0.005326535546313906,
            0.0003605236749987562,
            0.005648860140142607,
            -0.005436704332158829,
            0.01581483968096553,
            -0.0019212502414454626,
            0.009339624678493783,
            0.009398870878550132,
            -0.002589071791734871,
            0.01323570035361189,
            -0.008676475864729067,
            -0.006763527794059525,
            0.010968926084877893,
            -0.005913550974628969,
            -0.010358839104331363,
            -0.0011932700659638242,
            -0.014422100330511424,
            0.012565563103745486,
            0.00661238414802408,
            0.0024696581270278986,
            -0.002672302515566325,
            0.005358329313829951,
            0.01989908803133083,
            0.01718499196694546,
            -0.005084571342754008,
            0.006713991875223484,
            0.0023089931807997767,
            -0.0019899818380372442,
            0.020910450777661363,
            -0.00874628405587704,
            -0.001295144249443389,
            -0.019521052872452326,
            -0.014023291454531368,
            0.012642781551583295,
            -0.0031973958481014177,
            0.005154138017832411,
            -0.009914953228789037,
            -0.007673098263317348,
            0.004227462261582802,
            0.01584268109950111,
            0.005924728014240198,
            0.014093927424219022,
            0.023412598067169527,
            0.013055801361882398,
            -0.005107272633668803,
            -0.0010534471250754213,
            0.015177036947156136,
            -0.001493559182540911,
            0.008016165275042902,
            -0.014606026005069696,
            -0.006825135693581064,
            0.0052887974558517405,
            -0.022370865111124707,
            -0.011077125022845524,
            0.009883433910080553,
            -0.013929351425968465,
            0.0032261197911623656,
            -0.0030099044482962997,
            0.003125074728200489
        ],
        [
            -0.0033979082932551405,
            0.0010848522163367594,
            -0.005637887345823028,
            8.878431397608565e-05,
            -0.006011568006493835,
            0.005560735100773853,
            -1.3859463254560686e-05,
            0.0018296650666742385,
            0.001698692553475717,
            -0.011640079711612022,
            0.005749050830575569,
            -0.0075806732855623225,
            -0.008088471964721285,
            0.00476631476933052,
            0.0005865092322748061,
            0.009845952563445802,
            0.014428769284963092,
            -0.005396815622024924,
            0.0012837699015594438,
            0.017604151835753225,
            0.009665392502290574,
            0.007130490503032692,
            0.012213015270248291,
            -0.006046029691643759,
            0.006365834094146309,
            0.010813859197208236,
            0.016209122856217475,
            -0.008061848173822241,
            -0.002516742076314244,
            0.0026013497911988176,
            -0.003698053189347976,
            -0.003918162398080485,
            0.004369418344637504,
            -0.004383145209776337,
            -0.01787912891199716,
            0.0011478782212136565,
            -0.005053007664959089,
            -0.007315309817303334,
            -0.015657381506559053,
            0.00895361324368878,
            -0.025967523201726992,
            -0.01780141580647277,
            -0.0035665403848612505,
            0.009010881160075127,
            0.013097059056826534,
            -0.011549826349293644,
            -0.0017763219598355099,
            -0.015104563750875688,
            0.010112070637749085,
            -0.014765626605201802,
            -0.0014319574500723765,
            0.010329837789497512,
            -0.004694735222481112,
            0.013893523679007582,
            -0.00870008223190852,
            0.0036919046954687375,
            0.008532821858237331,
            -0.0015361500302394008,
            0.013863142642463189,
            0.004632250465775738,
            -0.01651352865591209,
            0.03877794728112983,
            0.006486436440906672,
            -0.0013971619989461294,
            -0.013988128186664764,
            0.0008176781880561645,
            -0.004599428308406871,
            0.006443536660303223,
            0.0035776701862899776,
            0.017542016743758923,
            0.0014225137252631779,
            0.005135054799885475,
            0.003724568515114425,
            -0.0016239307564226127,
            -0.0018340019732002392,
            0.011010002026684817,
            0.00699219159413648,
            -0.0062944160405378,
            -0.011134361029729903,
            -0.0006741002494685439,
            0.011614399816743937,
            -0.0027458887998618063,
            0.016656271133029914,
            -0.010221297807916373,
            0.0014164053766580517,
            -0.02516303860965749,
            -0.010698654392529351,
            -0.0030912131864186216,
            0.005109377744920892,
            0.016298538627461542,
            -0.0029292388027944427,
            0.014539175816088174,
            0.004146215827477799,
            0.009863521802120643,
            -0.0046615485682592805,
            0.013041833677236566,
            -0.014426039670343296,
            0.004951586112003165,
            -0.00952062100706259,
            -0.005181455523987548,
            -0.014614036047221063,
            -0.005163479086460222,
            0.0035111689651096535,
            -0.0006877046307863847,
            -0.013477649412536636,
            0.013858353185807493,
            0.003372209383084586,
            0.010080654330757633,
            0.007852269196346882,
            -0.006648677669672133,
            -0.019450469586120393,
            -0.010338855108345337,
            0.012251558492732309,
            -0.010674493462831827,
            0.00816043684324061,
            -0.006124069731288238,
            -0.0005733841939368289,
            -0.01823919852625194,
            0.011670751659999642,
            -0.00039668700090482125,
            0.0076324560436142495,
            -0.002744892874474384,
            0.007980637952989431,
            -0.0010193203926360005,
            0.006207763489093801,
            -0.015095726842240434
        ],
        [
            -0.014237628471734032,
            0.0038242184975363887,
            -0.00039178256209496684,
            -0.005718063259481093,
            8.125610297088588e-05,
            0.014974339186490309,
            0.00017973002200823325,
            -0.009961144043430136,
            -0.017826374981963544,
            -0.0068324600745683275,
            -0.0007773280745401803,
            0.0020440677871821564,
            -0.010971543602553622,
            0.004955825925004806,
            -0.0600381639689435,
            0.007185255062536013,
            -0.03286225613298748,
            -0.0012140188313524692,
            -0.01918612947748465,
            0.013020294598119014,
            0.024781979834251087,
            0.01958582728079649,
            0.016727068670313535,
            0.026751233127334302,
            -0.003154668335662578,
            -0.011586565638697845,
            0.019276032292800727,
            0.0004037143102283927,
            -0.0043298763693018485,
            -0.01357738928812165,
            -0.004495122762834366,
            -0.022555505082884737,
            -0.005724637229517421,
            -0.008826512932028279,
            0.003604957956865836,
            -0.0058698004388722195,
            -0.006721037040689776,
            0.004802598155428224,
            5.515808907506431e-05,
            -0.006378857465682985,
            -0.02026110840745,
            -0.002533230372832456,
            0.0006721359066894773,
            0.004085111295974549,
            -0.008986831933186461,
            0.013742404960207164,
            0.013727377537548123,
            0.006094761082024169,
            -0.0012597768570906322,
            0.013221659288104747,
            -0.0046896522424582435,
            -0.024382548409454162,
            -0.013041691977960424,
            0.021629281305907765,
            0.038330074475830186,
            -0.031922878426046665,
            0.004502177420378455,
            -0.008789849183351593,
            0.013800449774605386,
            0.0023763439490632286,
            -0.024332939402968937,
            -0.0052547256109099424,
            -0.019007658077164213,
            0.00018026948236697613,
            0.003603364381794774,
            -0.005306674032435438,
            0.02073136028844004,
            -0.002649951914730053,
            -0.027956650113083688,
            -0.018691131470638767,
            -0.00823403235706581,
            0.020823538190389193,
            -0.0045032119917352825,
            -0.0005743259693003419,
            -0.013444265037843964,
            0.0049367830463943815,
            -0.01691748601525139,
            0.010265415720493132,
            -0.01858165479004989,
            -0.009497105529200823,
            -0.008684552495901363,
            -0.024132156252416985,
            -0.0037486932742668818,
            4.180054942635393e-05,
            -0.011215625029204531,
            0.0005586423172001717,
            -0.016514900437251546,
            0.007748526350738569,
            0.013079474983168651,
            -0.0053637379520190065,
            -0.018807841290522823,
            0.00947501167345676,
            0.004342634371307484,
            0.010725394457269492,
            -0.012704607763854797,
            -0.0006005662091689507,
            -0.00022813075956188547,
            0.010840011730468887,
            -0.0013479312929572363,
            0.010492182907525679,
            0.024884827271082443,
            0.012613627509261932,
            0.03321078756170365,
            0.0025840627670149427,
            -0.0037951751553387965,
            -0.009175647323996984,
            0.012946178033752191,
            -0.006874873930601744,
            -0.0410800241159165,
            0.026449636036572008,
            -0.007945937499717906,
            0.000552426932226055,
            -0.015569415578650315,
            -0.0222700396682089,
            -0.010061974545785966,
            0.0032604606465142087,
            0.011118512995359174,
            -0.014915525494523546,
            0.0032126591448383163,
            -0.007252149257453662,
            0.015220386025556214,
            -0.010342493412152088,
            0.008945578437067829,
            -0.013058433127939528,
            0.019696192441795345,
            -0.010114623348500069
        ],
        [
            -0.009509092510507697,
            -0.007043503315234588,
            -0.00045866686069767474,
            -0.0021873345896770914,
            -0.006791676546634625,
            -0.011487042296369458,
            -0.026249883716228065,
            0.00398567619876973,
            -0.01401564622664683,
            -0.018814108671660598,
            -0.015130791829268147,
            -0.017730155822331953,
            -0.021444440467284505,
            -0.003695624253374333,
            -0.008876581961167812,
            0.0037148749056070784,
            0.0022515374648902032,
            0.0009574677111013468,
            0.008254244205185042,
            -0.0014627327461135381,
            -0.010655232074855052,
            -0.011422082258936823,
            -0.007172193741843497,
            -0.019581690855990107,
            0.0032894389083883116,
            -0.031015328052815053,
            -0.0035310508431867487,
            0.005053819027529176,
            0.012179409008013474,
            -0.023005959909292512,
            -0.00806178211953457,
            0.0005151822052750068,
            -0.009449500148686424,
            -0.003982415674094618,
            -0.022944169482022592,
            0.0001293796029006658,
            0.00425920176502816,
            -0.019612678844311615,
            0.00894210349839609,
            -0.02531194780314982,
            0.003998380511443371,
            -0.007029204029101687,
            0.007255505180787332,
            -0.0067306789976619135,
            0.008143431291489254,
            0.005724435470126412,
            -0.01672079956326325,
            -0.007267698005204145,
            -0.0009243231854158614,
            -0.0023175625406476855,
            -0.02766011046674757,
            0.01294547831546796,
            -0.001397670037054593,
            0.015550159943330888,
            -0.0077105602486563975,
            -0.012698231440565814,
            0.0013224777891978463,
            -0.018648571308860096,
            0.018178673556236258,
            -0.01014441819561546,
            -0.0014902139175794922,
            -0.0022423577212349853,
            -0.005340876885058694,
            -0.003797750978851163,
            -0.0021656134513386906,
            0.008495868450948218,
            -0.003301803978574165,
            -0.021189212488802234,
            -0.03078224858059347,
            -0.02638164558224951,
            0.0022409904567577588,
            0.004640660877018057,
            -0.00017817549053938988,
            -0.01901759326004166,
            -0.018635830181859023,
            0.005779238902570537,
            -0.00036817656517027414,
            0.0011236848879221898,
            -0.015885740005133573,
            0.009179557962169705,
            -0.004382002673386686,
            -0.0016332805931442492,
            0.0039442803001211255,
            0.0037665887797257848,
            0.012878583831387423,
            0.0011856374617749844,
            -0.015476351462489858,
            -0.018191007693022936,
            0.006064039443038369,
            0.022937176123571778,
            -0.03391130318775115,
            -0.010195198494057162,
            -0.007715439052527362,
            0.00813221743353168,
            0.005247504922968238,
            -0.004771242064693321,
            -0.0074476888857252935,
            0.008290125990281746,
            0.00672619748121479,
            0.024288769695229792,
            0.00803779308957547,
            0.00356023744157027,
            0.0061472627582744846,
            -0.003428651795234886,
            -0.00977773001532967,
            -0.01087907536583075,
            0.004966800552017029,
            -0.01395283025065327,
            -0.007303828478814285,
            -0.0036068036228250632,
            -0.017447058790585068,
            -0.015620865856339327,
            0.00445096710344572,
            -0.019122360353508006,
            -0.009500207724159843,
            -0.01919194042370226,
            0.007403195484518541,
            -0.00020395661863545356,
            0.0005031708614713537,
            0.006503232142523461,
            0.00246633373848937,
            -0.03664442998923795,
            0.0016466506584920661,
            -0.012321741024732253,
            -0.00041522728410407685,
            0.00843294385103018
        ],
        [
            0.0009499611006916124,
            0.0008075098862302005,
            -0.007678037460245602,
            -0.003645380497066375,
            -0.004599290781602902,
            0.0171323434353357,
            -0.006018502190770903,
            -0.009994265013581794,
            0.003985983881614373,
            0.0008729709466092174,
            -0.030537643804263048,
            0.004798523711538174,
            -0.015526987831768356,
            0.00578464420256242,
            -0.007026909412907703,
            -0.016614099824549172,
            0.004943416509823787,
            -0.014864429394965569,
            -0.004557901735486175,
            0.002055061420923108,
            0.006120211260058309,
            0.0074467313931842975,
            -0.005232315718095958,
            -0.008312666005175414,
            0.017215067434183086,
            -0.01226177367596354,
            0.01799984720640146,
            -0.004525249732840256,
            0.014405864846337737,
            0.00668629655072063,
            -0.010455342473768945,
            0.0035528450700622956,
            -0.0006284298256098546,
            0.0021403183826735053,
            -0.0020689967318424573,
            -0.003180246045293892,
            -0.003946896809955577,
            -0.011718133792211222,
            0.009838008398180186,
            -0.0055968142191855684,
            0.003584376577926131,
            0.006024509012396099,
            -0.00892646673512884,
            -0.007811829694767715,
            -0.0028638491539517376,
            -0.008710990467741831,
            0.00501218192771108,
            -0.004786140738611845,
            0.019109923049227637,
            0.008572869801720775,
            -0.008801890645415797,
            -0.0023040017417143067,
            -0.00846744842105118,
            -0.015645078538111964,
            0.00927440020799545,
            0.009407178451398318,
            0.009255012147023857,
            -0.004569878575935375,
            0.010689859716189179,
            -0.006967032186784478,
            0.00935147779591075,
            0.018125278151175407,
            0.0013101891123325532,
            -0.02237383788896328,
            -0.0031690119652834628,
            0.004427355045671996,
            0.012196629819083994,
            -0.01133792035393578,
            -0.0019054829766145195,
            -0.002536111569957718,
            0.002326896417102245,
            0.009068193421567318,
            -0.009484396564537968,
            -0.004234782972255359,
            0.010079664776005784,
            0.003887306502779554,
            0.004483806507816874,
            0.0140462428995622,
            0.0010405338970908944,
            0.005280034220718364,
            -0.00035263070625321166,
            -0.019649946702039095,
            -0.012952578852810872,
            -0.005456640962529024,
            -0.0020865168806771402,
            -0.008660028211490922,
            -0.004240054461024692,
            -0.010925802346608657,
            0.0011908809216109764,
            -0.00019522558320273308,
            -0.016620395843326613,
            -0.022982058805378517,
            0.00638080977598714,
            0.0031642583858173547,
            -0.02664125939262139,
            -0.004264286176335223,
            -0.006275328025642854,
            -0.002283520878226783,
            0.005803301126032293,
            -0.009732675852492401,
            0.0017135207124949448,
            -0.0005348369273515635,
            -0.001830619869619735,
            -0.002246331626346877,
            0.0019975955519262755,
            0.004457711304321984,
            -0.005337240610464037,
            -0.0040724002401193084,
            0.0015147402167101406,
            -0.001148746635258257,
            0.0038560229234432526,
            0.0071829073575434286,
            0.012911889028508759,
            -0.0011644414827166405,
            -0.022772979966603657,
            -0.0006983593657735121,
            -0.006676615040529858,
            -0.0018695501653274958,
            -0.001532361617670917,
            -0.024325085126471132,
            0.0030489881455361594,
            -0.013455642599558327,
            -0.017093269697265094,
            -0.008714220655949576,
            -0.010715197243737026,
            0.006007868594413525
        ],
        [
            0.004638046267353467,
            0.014169169126941925,
            0.006479248123129182,
            -0.01449482855105733,
            -0.029647732760739995,
            0.009683544542575558,
            0.06988832756632002,
            -0.012141559447452736,
            -0.00694661149254467,
            -0.0175575947995246,
            -0.028652547155813363,
            -0.02427487813982422,
            -0.003571875256030163,
            -0.0061920985519609666,
            -0.02139654126085176,
            0.001376510760263037,
            0.001736097857383872,
            0.012651760510557695,
            0.00031730894052654226,
            0.018947350942575873,
            -0.009365045724630762,
            -0.008272032561011696,
            0.008379697644662572,
            -0.004900611551935479,
            0.01531081026908885,
            -0.010776822038117997,
            0.010645696384463553,
            0.0019417501629377704,
            0.023145845845438325,
            0.009446363733775732,
            -0.0030052737749552095,
            -0.005510103298530152,
            -0.003066724947628292,
            0.01052500229261845,
            0.0005126302258311699,
            0.012035880659241912,
            -0.016422292511747566,
            -0.028000251774082354,
            0.0028451865643861446,
            0.008790651297789071,
            0.040974856128667574,
            -0.009932749937379779,
            -0.011286314975468422,
            0.007244974325461467,
            -0.01975730141873837,
            -0.008910310382059744,
            0.005496897753530857,
            0.015120491226122136,
            0.00028287257461716357,
            0.013824293018929843,
            -0.008425911994405073,
            0.005409261175633824,
            0.009228285145412225,
            0.0008910357598393677,
            -0.008150771560684035,
            -0.004352314498893363,
            -0.006618918349396726,
            -0.007173759448079064,
            -0.0010810496373941493,
            -0.010293449328928048,
            -0.012171083483518965,
            -0.009535048621825571,
            -0.020526670274485563,
            0.023582391216604416,
            0.014361348757651797,
            0.028599618305738716,
            0.012603196673307332,
            -0.020017123112904378,
            -0.004263822533629575,
            0.00593726258679536,
            -0.016338007602623772,
            0.006031641687291658,
            0.003373229066001288,
            -0.008135995962931183,
            -0.009648474217627729,
            -0.004896710927095975,
            0.015341023788669696,
            -0.006526570300048346,
            -0.013308501519036564,
            -0.00689273163433319,
            0.0002479587897712443,
            -0.006689800989724755,
            0.012901403397609068,
            0.013204694588619127,
            0.005646580271169976,
            0.005468781941722528,
            0.01615095043726788,
            -1.2127423647182772e-05,
            -0.0006625675793205462,
            0.0005421887114537042,
            0.008282412828937213,
            0.0034605774628467395,
            0.014387669407908294,
            0.016844652487801703,
            -0.01279426156313522,
            -0.014380426456915592,
            0.028576230331573617,
            -0.005144731476528507,
            -0.017745959882248336,
            -0.003122296613778122,
            -0.015607341082966941,
            0.0043446645328545875,
            -0.006212517704302449,
            0.007924903022049876,
            0.004597817002101838,
            0.002439041896784273,
            -0.0023695251807413593,
            0.004286587396338862,
            -0.023125050823360804,
            -0.009253513796868692,
            -0.016325837482404168,
            0.01501805808609663,
            -0.006912689567621623,
            -0.004590633260657898,
            -0.037683887618453565,
            0.00512525152822058,
            0.0237919040301752,
            -0.013779272495681123,
            -0.0012088931048633651,
            -0.002605605906223512,
            0.010516687183086902,
            0.0036721183839291452,
            -0.012975060669088743,
            -0.01439274994219907,
            0.019086007525495132,
            -0.0038273688582375048
        ],
        [
            0.00808144111624639,
            0.0007930165766830989,
            0.0017405446616172856,
            0.0069530172311754405,
            -0.04876090746081291,
            0.008197484591086544,
            -0.03732149884651535,
            -0.026551445374153063,
            -0.04313449032104196,
            -0.002670041793419147,
            -0.0598586931761829,
            -0.042602385658286564,
            -0.00982160958028669,
            0.0007004800340255595,
            0.018827584631920656,
            -0.001107284140410984,
            -0.017616317775915137,
            -0.005181048069081684,
            0.01017202905981825,
            0.016735138203491495,
            -0.0015390025624749805,
            0.007262691318696371,
            -0.0035541349049214156,
            9.847164964998044e-05,
            0.008007679483455292,
            -0.026856854665885645,
            -0.011234390976775236,
            -0.007299266122876394,
            -0.006167464250611666,
            -0.00013304221307496947,
            0.013753676172470145,
            -0.013587968411019296,
            -0.013642725659596849,
            -0.009245412115760477,
            0.010860435477949109,
            0.009989392868837816,
            0.004809775213918388,
            -0.029177234646724684,
            -0.012207197174094866,
            -0.016700877262240107,
            -0.010286319287686639,
            0.001099864799815491,
            -0.004716082919356041,
            -0.007594910909364259,
            -0.013237454112285541,
            0.00419946915391989,
            -0.011105870747553072,
            -0.019303392177808066,
            -9.201544243399692e-05,
            0.003587189389333335,
            -0.047181110619967465,
            0.0033056641552566086,
            0.0018742816396162196,
            0.005001052998962162,
            0.002590701298730031,
            0.019448238591466514,
            -0.007754704347039222,
            -0.006274385220742803,
            -0.017002715668344916,
            -0.00710500674666955,
            -0.011450694281426841,
            0.003605135546411649,
            -0.0031026704811622035,
            -0.017759749451267452,
            -0.009090454864057223,
            0.015020191647129656,
            -0.003354186222485221,
            -0.024858654439954258,
            -0.04139035382515369,
            -0.026113762030554388,
            -0.005409711781662286,
            0.008380356076615443,
            0.04818594219725536,
            -0.03073710158366016,
            -0.042495986938935776,
            0.042092286308051965,
            0.015964132201066628,
            -0.006868316257783892,
            -0.0356064605901231,
            -0.005979685425002383,
            -0.009134434096547732,
            -0.009508885492733625,
            0.0077923164409627365,
            -0.009140124017595041,
            0.012124238413181316,
            0.001324960456358663,
            -0.04293395221668758,
            0.005591065236022912,
            0.0027545688589170002,
            0.007822237909417041,
            -0.011040492780879851,
            0.005732654485250398,
            -0.002322679056712279,
            0.011411688006392612,
            0.0030931780220466148,
            0.034346649280290416,
            0.007717051044424196,
            0.013568265791462373,
            0.01290993371628489,
            0.0007983961125628634,
            0.037969376947523226,
            0.00023357027569657568,
            -0.008311734031854028,
            -0.008718782048829341,
            0.005279505543325393,
            -0.01561119890658687,
            -0.0009953882501852523,
            -0.007283500854473724,
            0.01054440361229627,
            -0.011866754780263831,
            -0.029461995221209677,
            -0.021964519104923225,
            -0.012688589591737997,
            -0.025639096066896554,
            -0.05045755293756639,
            -0.00523862151948286,
            -0.006298125900034504,
            -0.02562200692282708,
            0.015045218666646716,
            -0.005784269725316454,
            -0.009976208418380527,
            -0.05068382318483526,
            0.04084725383284071,
            -0.031477735626853694,
            -0.006563628865920748,
            0.033731540569650185
        ],
        [
            -0.0024603960340019316,
            -0.003037644554038942,
            0.009640226322174183,
            0.001978218475557918,
            -0.0071631091370883545,
            0.0047923811736823,
            -0.027603867080052347,
            -0.02213968113101229,
            -0.019830886191627158,
            0.0018265355068490077,
            -0.0339520881783735,
            -0.023321060739917167,
            -0.003126030136650717,
            -0.001419310666263323,
            -0.027831958238154472,
            -0.013830336593839821,
            0.005122460666674492,
            0.019282606591217857,
            0.0012777970422482908,
            0.0280147161309938,
            0.014068054643098184,
            0.008961314918330786,
            0.0032366675568376198,
            -0.009026341649407743,
            -0.012193506192921665,
            -0.0075543686514954805,
            0.011329374204500559,
            -0.012776363350812349,
            0.006217129284692599,
            0.006265784866559904,
            0.0042474540823968345,
            0.02483180813909217,
            -0.019330913259494265,
            -0.0005091405458118286,
            0.0035111818581832427,
            -0.012797894396640296,
            0.0035990175700204713,
            -0.017185791734781013,
            0.013203247772317577,
            -0.04000859628223246,
            -0.0021243081131492314,
            0.014812575668272354,
            -0.006456017776942681,
            -0.026412337763088576,
            0.0063892931941980854,
            0.0052155049432642585,
            0.00020197855752048994,
            0.0052165450845265875,
            -0.014202032955766995,
            0.018177505593304364,
            -0.032807452281363926,
            0.005797408564270654,
            -0.004046481759563538,
            -0.005005291496314817,
            0.02236902122168525,
            -0.004703715820334117,
            0.008298943774311117,
            -0.011041707823980366,
            -0.0014933148150626822,
            -0.0063589065498235895,
            -0.012678826631628951,
            -0.01554458535134145,
            0.0024283345212421765,
            -0.002240360085815106,
            0.006980192950777357,
            -0.010558201281063181,
            0.011734219252298625,
            -0.004786633589256708,
            -0.018398376547702534,
            -0.02517138487478419,
            0.0018606359317592295,
            0.011683539719617917,
            0.007045046243710235,
            -0.02560424763445059,
            -0.01693523301661585,
            0.011020537459344695,
            0.005141939711724112,
            -0.0010971618830241153,
            -0.012096347242357898,
            0.024425279184471706,
            -2.758080536683727e-05,
            -0.00912841479241242,
            -0.00569878704506409,
            0.01906099152060925,
            -0.016051711404150754,
            -0.020559370326805028,
            -0.03499281348734946,
            -0.008313200228641876,
            0.007832536238835543,
            0.011877986447179852,
            0.0011152952375689724,
            0.0023732436396319365,
            -0.026080443333964462,
            0.013715695798349177,
            -0.013106545656253939,
            -0.0074383572831215935,
            -0.024432465924771576,
            0.01412832806371296,
            -0.00626607444597052,
            0.007721196774406992,
            0.02273635243406041,
            0.02273408026595238,
            0.000805603706020881,
            0.020177417036956195,
            -0.0037213191587612245,
            0.007571098927435354,
            0.010810059306057992,
            0.002693974528048613,
            0.0003798121865824661,
            0.06693801933457869,
            -0.01512198908352834,
            -0.019099479554386622,
            0.0072068593476216905,
            -0.03703143171292303,
            -0.003940495040766122,
            -0.0033828103893472706,
            0.0035426170251754777,
            -0.01901113290353261,
            0.005072515845393727,
            -0.0011656742405674566,
            0.001071078006298032,
            -0.03507930304139684,
            -0.026276685252374664,
            -0.016263554578820342,
            0.02816813233578153,
            -0.007244419106089368
        ],
        [
            -0.0024678903906993183,
            0.024629453465972385,
            -0.005821924381263328,
            0.008053470768311729,
            0.004238144669943843,
            0.016870494880212313,
            -0.13702251443272911,
            -0.03306611318006067,
            0.0355373172893814,
            -0.008568411325004743,
            0.0394281911616647,
            0.01574854415585431,
            0.006521796358150284,
            0.0024704926734128796,
            0.09732043641124849,
            0.010564539533391698,
            -0.016139886779512055,
            0.004152624061795244,
            0.014091929228466527,
            0.0018100916104191313,
            0.0031749261072237843,
            0.0219415471413877,
            0.009423595214611995,
            -0.0002755234078102485,
            -0.011983569946455067,
            0.001355516612511802,
            0.011671350423858511,
            0.00949268086233381,
            -0.019294035590203255,
            -0.01660762773301477,
            0.014434222345817434,
            0.03210304699727916,
            0.004968657977945137,
            0.015425370978304383,
            0.026971036169530463,
            -0.013031183884673872,
            0.012530686212410973,
            -0.003953828458883944,
            0.0018059945955197728,
            0.009459619922273415,
            0.0034696700467404767,
            0.0122649742704995,
            0.0075236118837868566,
            -0.004672483964741169,
            -0.013224429713422498,
            0.013453388081081803,
            0.003933821092376046,
            0.0038498864949884255,
            -0.006480234139177709,
            0.003946058907083886,
            -0.006952470118965779,
            0.005623467564376485,
            0.005440269804715391,
            0.01392484912591234,
            0.03129650501945091,
            0.01550704353950004,
            0.005053634415125542,
            -0.0019110467103712944,
            -0.007337858577438273,
            0.027539043918512647,
            0.002826085755156255,
            0.002357076762379338,
            -0.004219290345821964,
            -0.01071978726556925,
            0.01003491497458792,
            5.343919711177867e-05,
            0.009285503229341891,
            0.005077210777436204,
            0.013001789683054463,
            0.012298427414139702,
            0.009781557151310499,
            -0.01226825946489982,
            0.008841270046355168,
            -0.01910070858562677,
            -0.0049391359665562394,
            0.01604551853623662,
            -0.0036303524026437186,
            -0.029120499501343045,
            0.013409905643031655,
            0.020681399105527215,
            0.02280084639635305,
            -0.011719922233430293,
            0.019239794057250136,
            -0.03396710567308386,
            -0.005624968989821006,
            0.005774099086562918,
            0.009186700317940565,
            0.0089795574205818,
            0.011206422637253091,
            0.003969640780604172,
            0.029571506792831482,
            0.006864826401316458,
            0.008060765290787782,
            -0.000618011869023776,
            0.003002536763201884,
            0.0004893842381179194,
            -0.010150567580375186,
            0.005229236387266709,
            -0.002518521972500833,
            -0.013264896477767879,
            0.020692790067613914,
            0.019014874545582094,
            0.010081956109102624,
            -0.02742681048204488,
            -0.01619645693820656,
            0.026058114481349044,
            0.0008572458789358392,
            -0.0014894122914447525,
            0.016462381490607934,
            0.015175674103343665,
            0.00209191712653415,
            0.004151439604316576,
            0.01897160687385881,
            -0.0007846478908845067,
            0.02143006692772147,
            0.004300836906293999,
            -0.008711888769634168,
            0.025587510009480584,
            -0.00642873594919632,
            0.008350583653611483,
            -0.0053053550637241955,
            -0.007291008239586437,
            -0.002985608178933142,
            0.020107082293708573,
            0.007059747842682384,
            0.01873192988807113
        ],
        [
            0.007748118024501863,
            0.00633089845167465,
            -0.004174978227341644,
            0.007180407876875472,
            -0.02545564596679415,
            -0.004483216556249541,
            -0.017215215933439276,
            0.0038011143416468688,
            -0.001580106582836966,
            0.0009682589099415774,
            0.01574353792018634,
            -0.0011684059354346848,
            0.0029357208724825686,
            0.0022485462663488377,
            0.05818665293404861,
            0.012061600245452152,
            -0.01027273206505066,
            -0.008168444258601902,
            0.011890107570583902,
            -0.02318428477687406,
            -0.02617290094387935,
            -0.01814727087567263,
            0.0061801705146596435,
            0.0015237420731890447,
            0.00519954373382284,
            0.005039446913875924,
            0.014750881411813292,
            0.01575783445862164,
            0.020519017793524434,
            -0.010228334673071365,
            0.009498363731604675,
            -0.010003411544350313,
            -0.0036658540700893446,
            -0.005870861798504138,
            0.00010712426627731694,
            0.006972352269011955,
            0.006649505370107099,
            -0.017060398350425443,
            -0.015260351879826028,
            -0.00044466407910047877,
            -0.004915604098819063,
            0.01370531654277108,
            0.002669776284217045,
            0.005507032915785471,
            -0.0015693506698282466,
            0.010968481478561417,
            0.016361151221599528,
            0.0022578962201335743,
            0.006445853073025633,
            0.013402098597359722,
            -0.0007442975166208356,
            -0.003976475500418088,
            0.011636848546111812,
            0.007934884331815243,
            -0.014963223955017528,
            0.006269063059702962,
            0.0029982520177529053,
            -0.01746228834869149,
            -0.023523120703647794,
            0.005725770270067064,
            0.007937688419341851,
            0.011948385372977197,
            -0.013609797739045559,
            -0.002128849905269933,
            0.0046532100386776675,
            -0.015547383935209413,
            0.0008528298217914626,
            -0.000980729601211405,
            0.010895963426449983,
            -0.019072033213399172,
            0.0016843666202511092,
            0.01955830185790695,
            -0.006212073387910747,
            -0.00205826740277304,
            0.004413210855387317,
            -0.00825434267632345,
            0.01743213371768047,
            0.014334243017340981,
            -0.018854756546525298,
            -0.0003354505605436354,
            -0.005660908184974914,
            0.011056589617451365,
            -0.010944159856012884,
            -0.016586425714054973,
            -0.011373044112741126,
            -0.007796233311294726,
            0.02789713455962925,
            5.1917998499576544e-05,
            0.0029100454237039114,
            0.01661158235715125,
            -0.005523892656013998,
            -0.005783257170197853,
            -0.007133275792651197,
            0.00784904647387373,
            0.016332762095790373,
            0.008450009814822879,
            -0.0033720204621747645,
            -0.005203610271366949,
            -0.01112314290206408,
            0.007311453695585632,
            -0.011252204289220193,
            -0.0038877153919969158,
            -0.01168961344799233,
            -0.01961754766171119,
            -0.025399554033056743,
            -0.004536854886846029,
            0.00155786831236501,
            -0.0031781556631478147,
            -0.002235748874552203,
            -0.012678100206704582,
            -0.014443527068392532,
            -0.0035008394555927124,
            0.002112336611600396,
            0.02213495210724592,
            -0.006490436544361153,
            -0.013692804052133245,
            0.02144959765958557,
            -0.01309968644308,
            0.0055753264137732095,
            -0.004426554096701531,
            0.002330361947073739,
            0.04470840240040658,
            -0.0076651245330865035,
            -0.010993515843770726,
            0.003307582997282668,
            -0.0002194676383127246
        ],
        [
            -0.006126179877660694,
            -0.008949546297391735,
            0.005904938662003054,
            0.008708294810558005,
            -0.012927170674796519,
            -0.0018957321563333556,
            -0.001653064433532924,
            -0.02564036260932127,
            -0.008229477210160388,
            0.004391273732188019,
            -0.031071166181170742,
            -0.007787875771257181,
            -0.011032163462730862,
            -0.012960981850336225,
            -0.020556252913355326,
            0.008342832052517575,
            -0.010429291169715561,
            0.020321112060543038,
            -0.01813939148945998,
            0.018692499930332663,
            0.026050587689478693,
            0.011116346611968433,
            -0.016232488336621862,
            0.009120164645955322,
            0.012567374708813323,
            0.007372105730917951,
            0.004129002933200128,
            -0.017443723745538924,
            0.007155367850567184,
            0.011568866075592288,
            0.014420469904805038,
            0.011123952759472255,
            -0.006650488179207534,
            -0.012839173576521552,
            -0.0032181352870501285,
            -0.016497503040146723,
            0.019280044723420833,
            -0.015652455594038422,
            0.03582053312757856,
            -0.016792434031148242,
            -0.02092337578131121,
            0.016550180157069088,
            -0.010663741104380866,
            -0.006444552975860691,
            0.016485510899956077,
            0.02656421385056253,
            -0.00828558241543879,
            -0.005442420493087575,
            -0.010895350051014767,
            0.013380266089193179,
            0.002738959214742046,
            -0.015212889407642665,
            0.014932228006540538,
            -0.011351913619499335,
            0.04168807076960197,
            -0.018294530092328214,
            -0.004633379678363312,
            -0.008419227209124375,
            -0.019458912659192352,
            0.010518127657992753,
            -0.022088969927988575,
            0.00407404477509241,
            -0.0229292915777721,
            -0.003642367004087945,
            -0.005558229946715992,
            -0.008622605535103522,
            0.016868673680464734,
            -0.02109816608106478,
            -0.00016415403453315207,
            -0.014342288191677557,
            -0.027914440379218326,
            0.02804449962736739,
            0.004527136222363632,
            0.004146851328923597,
            -0.01715217727346184,
            -0.014637269394968464,
            -0.0062626495648341945,
            -0.012260699612397164,
            -0.010314668131550075,
            0.0019687821394713885,
            0.002090122800700362,
            -0.017644080806307177,
            -0.0015276468214350104,
            -0.00459581833172368,
            -0.0037029024752369753,
            -0.026961016671526748,
            -0.023579408722188496,
            0.016583993398079262,
            -0.0023420301205343734,
            0.005315065987887222,
            0.011081947731210566,
            -0.00010089768356528128,
            0.017121391699879755,
            0.022390878086671243,
            0.01569755509912194,
            -0.005743792879364678,
            -0.005863187299084855,
            0.02001771025310455,
            -0.007456440496702341,
            0.0004805070666646386,
            0.012979658990888845,
            -0.016494360461143193,
            0.003349151437670593,
            0.025013184337567,
            -0.0037206468100995987,
            -0.004134986965016967,
            0.0034578343547082436,
            -0.007409633426063588,
            -0.00867694654416817,
            0.04752871853750513,
            0.006775621657271063,
            -0.007782694306732023,
            -0.009613638025614542,
            -0.02965296798832439,
            -0.002314505843533642,
            0.015143631658286548,
            -0.0009338180224416345,
            -0.020491564872760364,
            -0.008077223666950639,
            0.01233424909299263,
            -0.00022359372022848556,
            -0.02421669706046958,
            0.003985593432105796,
            -0.012281785739891119,
            0.011873612923671074,
            0.008585035370779098
        ],
        [
            -0.01380012946878708,
            0.004115756078362537,
            -0.014248609016543665,
            -0.01455771715965201,
            -0.017747117238885637,
            0.0025525136105150146,
            -0.0030990192777988106,
            -0.0036264591876742458,
            -0.002891097236080364,
            0.0007979349505272742,
            -0.0014734548261927515,
            -0.00042017852130845496,
            0.01604323943116341,
            -0.008188195505117964,
            -0.034758435932123646,
            0.009911379012585368,
            0.018358695455399286,
            0.008590991150650597,
            -0.007853465169354194,
            0.0019350250415154297,
            0.0008172422626054335,
            0.005330741912965167,
            -0.003870619345683347,
            0.003094215384847039,
            0.01963062952929934,
            -0.0013096747299696917,
            0.021161621551409743,
            0.0040577898662854965,
            0.003992151778109714,
            0.01334365873121253,
            -0.007684841390052363,
            0.021925642259032405,
            0.0316818633000371,
            0.012333545025329452,
            -0.00788282079278372,
            0.023336293385429713,
            -0.01860300333269392,
            0.011785187513442198,
            -0.00029075029609674754,
            -0.017869354037797817,
            0.01212697278452277,
            0.0042396730847556255,
            -0.012483566609018603,
            0.020311767064063752,
            0.013492276782627105,
            -0.013790649921685052,
            0.00905139135173809,
            0.0011197268749652818,
            -0.01026139288667045,
            0.008693323070151264,
            -0.007388725581002653,
            -0.025087186015128753,
            0.001980510086651857,
            0.0014035992202880918,
            0.025079548495997955,
            -0.00943104353871879,
            -0.0057336072925712805,
            -0.0011724767712955894,
            -0.008593713169178759,
            0.0026436497720254736,
            -0.01648152918607603,
            -0.01915605546650842,
            -0.02260727438305343,
            0.012592040476156337,
            -0.0032114798005329443,
            -0.003821415574166137,
            -0.0005641650533324122,
            -0.0006059782832830703,
            -0.013283405365842976,
            -0.01104997281945435,
            0.009100454965626118,
            0.014661931053162535,
            0.0031674468211459255,
            -0.007462242754132891,
            0.006123838580342552,
            0.018760267389705643,
            -0.006949192814353506,
            -0.0020852890048778205,
            -0.0006868812108469795,
            0.01894556002410534,
            -0.0008653792995571585,
            0.021158618231941654,
            -0.0003896405399252409,
            0.015108758189103285,
            -0.012933540092209261,
            -0.02334217860952025,
            0.007125104437871306,
            0.0010247713814501107,
            0.0003672300177820618,
            -0.014466996334145974,
            0.003965778487792077,
            -0.006074641019327619,
            0.029434517413527164,
            0.014928207705233107,
            -0.002669302956497443,
            0.001568281822673461,
            0.02204449188981254,
            -0.0027679049939381465,
            0.018482333679679015,
            0.009221103681405612,
            0.002037417574383581,
            -0.004404137165106711,
            -0.009659552082324909,
            0.015046564923810514,
            -0.0043826394902083165,
            -0.00786390772962587,
            0.003986504076322743,
            0.0024692273113875694,
            -0.020831827777263886,
            0.02513073100092842,
            -0.006355208066830586,
            -0.005720258872130944,
            -0.015516576391918181,
            0.011292996309414185,
            -0.003699285215393787,
            -0.004308172062138868,
            0.011415813863114733,
            -0.0037647279434602447,
            0.0076729362648741695,
            -0.014806546192802672,
            -0.00996899778783212,
            0.006425566104194724,
            0.010766918977491838,
            -0.0026386602921267314,
            0.028010397157691592,
            -0.023757674035198413
        ],
        [
            -0.0032616618601577847,
            -0.010051670228211044,
            -0.0016023811578968906,
            0.004260498144541875,
            -0.01609397640048601,
            0.007642511652357723,
            0.013490079275911497,
            -0.00785298550419217,
            0.012028427775207927,
            0.0029543966465863936,
            0.014582251932101959,
            -0.016991047075115753,
            -0.00410216819271666,
            -0.007498974339035283,
            -0.0435360901073525,
            0.005814200364254438,
            0.00628308556602926,
            -0.005555534310405374,
            -0.020861062023810828,
            -0.003550429373621344,
            0.014723029704917921,
            -0.0019003862618330056,
            0.003245011559438874,
            0.005647038156347732,
            -0.008807393885145762,
            0.0007329821012878474,
            0.006506240466812063,
            0.00941325584549539,
            -0.002254200823580782,
            0.003297345143577016,
            -0.008817520559582416,
            0.02116593499302884,
            0.016765000491524098,
            0.0038549672926098716,
            0.0031578682828002197,
            -0.004025470871556999,
            0.01758244452804779,
            -0.005268962420270114,
            -0.0005499265956522627,
            0.003976765329825421,
            0.02511353561142581,
            -0.0014862787319372133,
            0.007881882542523514,
            -0.002230306072812755,
            -0.012129749711766358,
            0.011001764697570405,
            -0.0030176025044502896,
            -0.007421270927207663,
            -0.004160755441601828,
            0.008992542779148748,
            0.01828955067052274,
            -0.024280043761095618,
            -0.020157613307508853,
            0.006339266882111712,
            0.00892344731758359,
            -0.017935741833587076,
            0.004183619166335985,
            0.005907267387431554,
            0.024884641652208786,
            0.002955400048625968,
            0.01141083836592811,
            -0.007479862507756169,
            -0.016331123786148354,
            0.01092706493948789,
            -0.005385720855117207,
            -0.009229802572637268,
            0.012878893930254424,
            -0.02474800478392666,
            -0.0026948056574057954,
            -0.00037576661934195753,
            -0.00290102995928595,
            -0.010647081165924279,
            -0.02142560069791123,
            -0.007996248110979043,
            -0.011005479937903217,
            -0.0026447948266509294,
            -0.002081942130556487,
            -0.007417602315025393,
            -0.015842507124350248,
            0.00918493296885312,
            -0.007618346905784482,
            -0.007762351626770206,
            -0.005953835800413782,
            0.0046878809637973815,
            0.009853047919975379,
            0.005730351094776596,
            -0.0005756336979583089,
            -0.012413320207938568,
            0.006159428110284687,
            0.002607686309919702,
            0.007913030382640674,
            0.021723327962554256,
            0.021706995798595474,
            0.01964753663534092,
            -0.00417870617781906,
            -0.011931098955966463,
            -0.0026016969579657615,
            0.0021091473157127147,
            -0.012583499172829835,
            -0.006337920536966861,
            0.0005486609863262019,
            0.015727366617290968,
            -0.004728755590295527,
            -0.011394669335735217,
            -0.004474732727296367,
            0.0061446484952231,
            0.008285152353373472,
            -0.009216590545137944,
            -0.004760685221496821,
            0.03731014637280962,
            0.005541866263815021,
            0.010075039084002993,
            -0.004481118060935155,
            -0.009936238237622833,
            -0.01965275060945573,
            0.009326428819741554,
            0.004844756989443058,
            -0.003591439203225714,
            0.005012748490408392,
            -0.007864027706953625,
            0.01158181217717789,
            0.005688663434641544,
            0.018759740164135102,
            0.002336076760959869,
            0.013558593368190307,
            -0.006065639161356474
        ],
        [
            0.019179291517958708,
            -0.01661977622850652,
            -0.005328319611205531,
            0.0013646116500312963,
            -0.01764014558669424,
            -0.0106066186710322,
            -0.028196549834995293,
            0.0017940184671545437,
            -0.017119138447336445,
            0.008115410689545011,
            0.006096740402709992,
            -0.011393998134421615,
            -0.015537826099971513,
            -0.0024133268550056482,
            0.06596535909203419,
            -0.0011543413657720627,
            0.0006716029067929237,
            -0.010542894838668007,
            0.023870272353384233,
            -0.0067993543769992665,
            -0.00772102951971008,
            0.013832517084846944,
            0.022690856208953922,
            -0.00532151338424831,
            -0.005403978576314545,
            0.010067509430770715,
            -0.010124510279236458,
            0.00935191541792802,
            -0.009454999247266485,
            -0.0015001392947899888,
            0.0045327066614439205,
            0.00981933846397911,
            -0.019801058583241226,
            0.011459558649003046,
            0.009118463117063158,
            -0.0007134422355114698,
            -0.004425903868506202,
            -0.016085811311479813,
            -0.0039004458465743794,
            0.00374387264148984,
            0.013343103110239642,
            0.00552896802482625,
            0.004372389042804103,
            0.010656089408563314,
            -0.016118546409077904,
            0.007956589242442611,
            0.009884686184007088,
            0.009441363880909798,
            0.0010868653295416312,
            -0.013535640556906032,
            -0.012916148062519759,
            0.00972391841754724,
            0.00462512334528066,
            0.01718064934465272,
            0.014762124623474798,
            0.023457870807070073,
            0.000339287983914027,
            0.0025393456615101966,
            -0.0019831984921841986,
            0.019663875951039165,
            0.005832861587769573,
            0.006573748313117808,
            -0.004745668242669223,
            0.008957751603835752,
            -0.014898938450873513,
            0.01848653559560336,
            0.01057721981069968,
            -0.019307476412799597,
            0.0019595496081101595,
            -0.0034086050755546002,
            -0.002007150608377093,
            0.004368559137588452,
            0.005568669863380043,
            -0.013748534151796167,
            -0.0004585902346810383,
            0.008346787328509506,
            0.004142803483906792,
            -0.006034583795586689,
            -0.006934604832250325,
            0.0004236155367573732,
            0.002866307739324773,
            0.020383696085971004,
            0.006975945964031389,
            -0.0028101384476760523,
            0.012636316652971031,
            -0.003804943804197243,
            0.010049202459870489,
            0.015606984865584914,
            -0.011497305339176554,
            0.007403501780196108,
            0.01399339233542161,
            -0.016933487080721045,
            0.015610951832378749,
            -0.009719057119749804,
            -0.0033505405763656778,
            0.008221873365892913,
            -0.0037347605136585655,
            0.00876029144209695,
            0.001509254169753576,
            0.005697512910046693,
            0.007232569270811303,
            0.01245835999825224,
            -0.02015498008993193,
            0.0024578018685348564,
            -0.0030061512780074225,
            -0.0004751347404828744,
            -0.009299240703330925,
            -0.005719799781794556,
            0.013594442505057478,
            -0.019485513474290842,
            -0.0046986987701879215,
            0.008912999189350379,
            -0.011557916510992894,
            0.013567679494405283,
            0.02114903003280256,
            -0.0060092483011324645,
            0.012931816531777655,
            -0.00653358301613452,
            0.005333674564269574,
            -0.0018170519548628135,
            0.022186746872704728,
            0.002938219499966007,
            0.014108017813226063,
            0.0030067985196031806,
            -0.014184267540981718,
            -0.011277126345669724
        ],
        [
            0.005790872157500357,
            0.008445184395768824,
            -0.0053670541820727115,
            -0.0063337466753765476,
            0.003268627444922456,
            0.0029239487785853125,
            -0.008437518823833286,
            -0.00447262007330973,
            -0.014969405039934859,
            -0.012179733796945995,
            -0.027018005886034677,
            -0.007663458007755302,
            0.019191687587935317,
            0.004778945560383348,
            0.020986545846365275,
            -0.016884232521666452,
            -0.006679300665709081,
            -0.005554997714307219,
            0.013329596801014185,
            -0.0002767738675460484,
            -0.000998832380923459,
            0.007540295270406567,
            0.0014895451879459777,
            -0.011257842433675716,
            0.010833373449479471,
            -0.008690500870614529,
            -0.0039812945846834135,
            -0.01292737402624507,
            0.0009673935459673665,
            0.007345652857094254,
            0.0068140191013360595,
            0.00519484505327407,
            0.007099875115802381,
            0.008883909658932829,
            0.013774215110047698,
            0.002279278924258026,
            -0.009753885453711425,
            -0.0018256894320396386,
            0.010046099066254057,
            -0.016005736980899014,
            -0.0027474191894397986,
            0.010828130715711141,
            -0.003734764553885792,
            -0.014969027583076822,
            0.0006153397186295915,
            0.016524090913229893,
            -0.008542218874758593,
            -0.008140541132767758,
            -0.0075103094717834705,
            -0.004740438846039333,
            -0.004738927618202852,
            0.028561965797537954,
            -0.008924402106201719,
            -0.007086549942283279,
            -0.009288554991336802,
            0.004613887102916024,
            -0.015347000602121186,
            -0.01559926241881721,
            -0.008144773123478038,
            0.0030403816545437868,
            0.004637851446495508,
            -0.00821600484572795,
            0.007752410317871826,
            -0.010998921049652931,
            -0.005129181238163879,
            -0.003257310964506332,
            0.008359323269125224,
            -0.007891408068160674,
            0.0020459480972283587,
            0.004970218790687209,
            -0.004382638867200882,
            -0.007376140441559113,
            0.0018116908947882018,
            -0.015001978083507759,
            0.012835406928062662,
            0.0002581071256428566,
            0.007924407685637149,
            -0.012671073005022024,
            -0.017507575847901604,
            0.0047273890059215395,
            0.005158867189559166,
            -0.009364009415650361,
            -0.005667756498026532,
            -0.008557399854282664,
            0.01783006070640038,
            0.023032350991331094,
            -0.020555921099169545,
            0.0030294894651513304,
            -0.014346062679257102,
            -0.00530931964302213,
            -0.012685071741352399,
            -0.013614540401483558,
            0.025596072370981653,
            0.02483701006334743,
            0.007522698590240822,
            0.006560151814185348,
            -0.015543420925621415,
            0.02436072407684986,
            0.00018317264871405513,
            -0.0012339550999896653,
            0.011476405203373754,
            0.00046272760994312207,
            -0.007766036112085257,
            -0.00333998021044395,
            -0.0037608577925288844,
            0.003278284722956454,
            0.0043938094832755865,
            0.005327589038428345,
            0.02856381047565673,
            -0.01830162583331777,
            0.0024940447539486777,
            0.00997997798610949,
            -0.012260226077977773,
            3.90652061931741e-05,
            -0.017809961530636954,
            -0.014483520589068481,
            0.011326536714125583,
            0.01135483968796023,
            0.005233729439128036,
            -0.004769313976443531,
            0.013358841885765542,
            -0.025278401360849065,
            -0.0009986575997172913,
            -0.0022348648920864616,
            0.007898460025309879,
            -0.009072656205179936
        ],
        [
            -0.030641413561051007,
            0.001153703132862659,
            0.0031742715534436644,
            0.0017368027267708264,
            -0.00877246861311612,
            -0.00044160799840172794,
            -0.015400790713414785,
            0.00420593391685113,
            0.008925883958304511,
            -0.001539262996329315,
            -0.020039417678250966,
            -0.0012978171025513718,
            -0.001985003194006996,
            -0.0008060699432624299,
            0.028149997024789285,
            0.0013859547911853221,
            0.020841228476909005,
            0.003807434533098883,
            -0.0108723367066726,
            0.011336134582784587,
            -0.0009034436761133893,
            -0.004887708573317057,
            0.004524664098911759,
            0.001147838114006333,
            -0.015585941928171034,
            -0.008495187764148104,
            0.011520065700146511,
            0.0017592789245984334,
            0.012170915386654654,
            0.010201526445153519,
            0.017926130716325067,
            -0.0101043981601519,
            -0.007033950585259874,
            -0.007514445358788206,
            -0.00600450541555805,
            -0.009125867671295468,
            -0.0001500073249781529,
            -0.0010823276892106414,
            0.0058123827172090895,
            -0.011906512335608766,
            -0.006538245233132641,
            0.003594610656512877,
            0.006986479775844115,
            -0.023166173104182224,
            -0.006020706223552576,
            -0.0025362038959397797,
            -0.020411541793372043,
            0.004487003567731619,
            0.017822331112310647,
            -0.01943099412302922,
            -0.015649287679726242,
            0.00952182126740413,
            0.01135339228119035,
            -0.01272775637465155,
            -0.00987620712704062,
            0.0065941880673568085,
            -0.0024302373169355386,
            -0.005213164307740237,
            0.01594137379633442,
            0.004708640971304796,
            -0.018194488422044682,
            0.0025331390572279288,
            -0.014052576600099998,
            0.007420565797160271,
            0.009819936577191596,
            0.004385619980890406,
            0.00927819852939582,
            0.019642794572557087,
            0.00726679966035482,
            -0.00198894882169245,
            -0.010933039087690001,
            0.0022445073469377036,
            -0.010350381702707547,
            -0.01438745273090476,
            -0.004618495049410465,
            -0.017783181251316706,
            -0.013004737829259793,
            0.010792619759698582,
            -0.004752552733646227,
            -0.006779776965210002,
            0.005521894863140957,
            -0.019541918157254503,
            0.0018622374551821377,
            -3.829943066477541e-05,
            -0.0004520646971031836,
            0.0034284631059528278,
            -0.015868219844339466,
            0.019118295120412167,
            -0.003033511147770679,
            -0.014342137169891076,
            0.001115298785398136,
            -0.01271167723089402,
            0.0006639269984569035,
            0.005406022320910384,
            -0.0131889682743322,
            0.008454264291238803,
            0.0013109219967497151,
            0.0034908368421465398,
            0.004040681051477186,
            0.005124341468056791,
            0.011203617995751336,
            0.004891111319601972,
            0.004869103534737833,
            -0.007643396262695974,
            0.0028633110246920677,
            -0.0038476889573634426,
            -0.014487522736715717,
            -0.00041376875211026384,
            -0.009128100967507607,
            0.0076379806996814195,
            -0.0003770919420042695,
            0.00045262568720710905,
            0.0077520611859306044,
            -0.004181239219167975,
            -0.0025659485841042907,
            0.011646711622989355,
            -0.013836786015679184,
            -0.008669552184321474,
            -0.0013369387223934462,
            0.007847891910603184,
            0.0024979247394889877,
            -0.011575168377245607,
            -0.009197739705244748,
            0.016944600197979377,
            -0.0005507403442800438,
            -0.006184412224138484
        ],
        [
            -0.0026066828009849996,
            0.03963858144179017,
            0.013402719103293055,
            -0.014128647704708343,
            -0.009961840252619534,
            0.005106438816156904,
            0.06971674520406207,
            0.013806426764619555,
            0.014008300283456532,
            0.00306496983066471,
            0.013778138550335288,
            -0.005320818374368736,
            0.008827990661065271,
            0.017235344039765135,
            0.04061674527828483,
            -0.0073893892601288895,
            0.013808127171825163,
            -0.007909327351141181,
            0.021079061351104728,
            0.001549289495088044,
            0.008841392352894224,
            -0.0019504888511081887,
            0.009272774143826148,
            0.0010942276656362715,
            0.001646859455424717,
            0.02571906575435706,
            -0.011876324489306669,
            0.006854164476855812,
            -0.002877232084108312,
            0.017347337487272452,
            -0.01573506851879787,
            0.010097995206258193,
            0.01038765633327472,
            -0.002740578258587742,
            0.01128785124175711,
            0.006267087417127952,
            0.005007480720502024,
            0.008644891474823667,
            -0.012651800557811805,
            0.008482595086431656,
            0.0177258022181484,
            0.007911246389932127,
            -0.004800057353820645,
            0.002489495104836346,
            0.007713352922468743,
            0.008096491431887353,
            0.012232837594829814,
            -0.00783442220620272,
            -0.022832982096231733,
            0.004779541367503877,
            0.003965125518366677,
            -0.009117917232606005,
            0.009088658315489303,
            0.004989175200206272,
            0.0012092931520727016,
            0.0026876121128970635,
            0.0008343319476319257,
            0.008419838770767303,
            -0.022644803367777078,
            0.01870697760956709,
            -0.0012424727302048002,
            0.00988111359671194,
            -0.0034307610847539465,
            -0.0036363045333433586,
            0.006928318337895647,
            0.02544696523488331,
            -0.02034520236244653,
            -0.011673892774258956,
            -0.0016579976460744416,
            0.0015184438595751523,
            0.009557390046271836,
            -0.008425000469659306,
            -0.00143669014772379,
            0.004530243499531572,
            -0.025416446480184346,
            8.552776011434807e-05,
            0.02238258114473979,
            0.008858213333856963,
            -0.008742221689384185,
            0.007696883930233239,
            0.023621220268134964,
            0.020931540622812352,
            -0.003610015968070075,
            0.0016088944529436236,
            -0.00010932685411251349,
            -0.004940219396840945,
            0.03488260077289152,
            -0.008102020629948045,
            -0.01087418188929478,
            0.005444280122836313,
            0.007991879074357196,
            -0.0020438481436563963,
            0.03322323156134384,
            0.001942299900066951,
            0.011903232334406804,
            0.006615273726552193,
            0.02295152108988737,
            -0.015231647059907608,
            -0.005469719130389167,
            -0.0026225387360457133,
            -0.0029214078633929895,
            -0.0047923523241005395,
            0.0015990174327940533,
            -0.0026804855746694234,
            0.006895928169178559,
            0.0071181782051515955,
            0.010385158301806075,
            -0.00013095411345173577,
            -0.0023513208876382204,
            -0.021066873006972228,
            -0.01132803175122077,
            0.013303259278656929,
            0.01202059351006588,
            -0.015318465008686517,
            0.006767331885619946,
            -0.002657536923850455,
            0.009103477525219538,
            -0.011942038860656251,
            0.005489951251882254,
            -0.019062328456870805,
            -0.0011747429082571968,
            0.010414579791384968,
            0.007404353315679635,
            0.002177653936178047,
            -0.005923651210634668,
            0.005324432419239639
        ],
        [
            -0.012391599178869214,
            0.00036378225449950317,
            0.006083553766915521,
            -0.0037300574325132164,
            -0.005021712833266261,
            0.0010684324489964052,
            0.05004384737863956,
            -0.003662506373497943,
            -0.010857393629460624,
            -0.019742477626379516,
            -0.013391815139224347,
            -0.004578662589286846,
            -0.02088347041684376,
            0.01137067927870699,
            -0.038028356393624896,
            0.006982212326172385,
            0.0016309706045018833,
            -0.006345241026314362,
            0.010823644693543409,
            -0.012729588829414095,
            0.00926647887312965,
            0.0016843805926839276,
            0.002857073175207549,
            0.01109590611613864,
            0.007682554277417667,
            -0.01762877750815434,
            0.013783902642390352,
            0.010039964033226744,
            0.0010380768108867152,
            0.012013913175824413,
            0.013149228508757639,
            0.013949649070425578,
            0.014419515143310462,
            -0.007257282949846776,
            -0.0018690623976655185,
            0.012653050890687042,
            -0.008558122025835524,
            -0.02096585398132918,
            0.0002565990168976001,
            0.009655594786988972,
            0.01874818763649625,
            0.012089854776886932,
            -0.022037392666369098,
            0.005238327644377443,
            -0.002056777237581383,
            0.00035630755637688666,
            0.0018731476476572294,
            0.011372842021388632,
            0.005589327357143823,
            -0.0007912026536179641,
            -0.008016009562473945,
            0.0025413491951809613,
            0.003123194016817992,
            0.01300699917370918,
            -0.019257771181250327,
            -0.01806547240229647,
            0.015976369628457134,
            0.0026822018143968325,
            0.007421763268577154,
            0.01595079992141863,
            -0.02323788214509087,
            0.014178215354061894,
            -0.012466882265529344,
            -0.0015344594242659823,
            0.01147777430092922,
            -0.010965350847301207,
            0.005508027227710456,
            0.004250762462976379,
            -0.01648240996161603,
            -0.004576201746962497,
            0.009010301729966102,
            0.008629013047291181,
            0.00016898246625626795,
            -0.018868011680051838,
            0.007194855366830835,
            0.0026424761395028723,
            -0.023781787748985733,
            -0.008997874930908699,
            -0.02062287401711274,
            -0.010409049657771745,
            0.0025605238613052046,
            -0.00269946957229515,
            0.012036331472002082,
            0.01554023109207869,
            -5.973395318306366e-05,
            -0.009044494459130659,
            0.016527516224959318,
            0.006357613307648022,
            0.011646683085161851,
            -0.004856079694724198,
            -0.0034138317091202365,
            -0.00996739771305444,
            0.003881921645347038,
            0.011882196763348778,
            0.015962034793090146,
            -0.0036628798753201124,
            0.012328500294632963,
            -0.007407806555167599,
            -0.015295979793746663,
            0.0037276048238828853,
            0.0013432451020699992,
            0.003412397332987706,
            0.00026131979530616146,
            0.004957909621243876,
            0.0016538189996365671,
            0.01681352201430274,
            0.003411557698161489,
            0.014513351157605372,
            0.009921377931432074,
            0.0016249444192666298,
            -0.021330189979738345,
            0.01370467944014077,
            0.0032076198065559757,
            0.00919972078398605,
            -0.0014837691255148947,
            -0.011113896983068045,
            0.0070269288050874715,
            -0.00038316216930280554,
            -0.0019311226230054835,
            -0.012028900119713276,
            0.011584573262277107,
            0.009905584043493962,
            -0.0005936088072341342,
            -0.00029122248965258307,
            0.002668343299615436,
            0.015576589566404295
        ],
        [
            -0.015409692892677527,
            0.0046446260029171585,
            0.009909861710337484,
            0.008234070777770719,
            -0.017522369266946093,
            -0.002238563880500167,
            0.019138016771311016,
            -0.0029277901813417797,
            -0.019691081771543505,
            0.008323518154376312,
            0.001753444606031166,
            -0.00717591841259849,
            -0.007259800553524553,
            0.005359654993388379,
            -0.02658051420148099,
            0.007954279286776672,
            0.002090650539523186,
            -0.0003283094966799271,
            -0.0039035111241667204,
            0.0038561017960107562,
            -0.00778805452421595,
            -0.011006101106105039,
            -0.0037070891340026135,
            -0.0038668228181164767,
            0.015620975404206074,
            -0.032116615160494175,
            0.020008844017465777,
            -0.002354109580367169,
            -0.007710385133282165,
            -0.004919349490855235,
            -0.014844223339448981,
            -0.02032167323739674,
            0.009936579616718337,
            -0.002456748906822194,
            -0.014679450106580023,
            -0.011618664629133134,
            -0.01006288531056694,
            -0.026354723009257223,
            0.010555618313663789,
            -0.02763391215169069,
            -0.007619353635657399,
            -0.01326481216987969,
            0.0003171790614805133,
            -0.00045718188591569505,
            -0.001447931144765984,
            -0.004152347792447425,
            0.0015506199747315425,
            -0.008655245668860351,
            0.004836647333649348,
            -0.011210898289617015,
            -0.008436673811154422,
            -0.01126478023774367,
            0.012723450327549984,
            -0.016668100582138426,
            -0.004948403185171943,
            -0.016857299639898952,
            0.009402189051184921,
            -0.022506415876334476,
            0.00814062162971317,
            0.0037118965713579784,
            -0.002733749153619628,
            -0.011316187938470678,
            -0.001921370956964024,
            0.0192839061270863,
            -0.007613941705266083,
            0.0008954488588320134,
            -0.0050609104334508,
            -0.024142336613873043,
            -0.022088004913419782,
