{
    "bias1": [
        [
            0.029771397987041003
        ],
        [
            0.08641534733013327
        ],
        [
            0.00805968201324868
        ],
        [
            -0.010522657551612581
        ],
        [
            0.021629465777210127
        ],
        [
            0.024812398915234596
        ],
        [
            -0.0763079765187063
        ],
        [
            -0.04131514479314488
        ],
        [
            -0.029476963674539565
        ],
        [
            0.031097956056697674
        ],
        [
            0.0518779962359642
        ],
        [
            0.040335598917548565
        ],
        [
            -0.045006672063627455
        ],
        [
            0.018173458629650096
        ],
        [
            0.01029983814354217
        ],
        [
            0.05479941081438461
        ],
        [
            -0.0200942029456586
        ],
        [
            -0.0029870303202659313
        ],
        [
            -0.03311021473383295
        ],
        [
            -0.010366748219760955
        ],
        [
            0.034089213372063935
        ],
        [
            -0.03246794320764747
        ],
        [
            -0.003179269757575406
        ],
        [
            0.03864067968912758
        ],
        [
            0.020447827615777247
        ],
        [
            -0.020869818891718735
        ],
        [
            0.0591866700705323
        ],
        [
            -0.03411644124066331
        ],
        [
            -0.0009501945511375913
        ],
        [
            -0.05514878227532986
        ],
        [
            -0.0038933781144946337
        ],
        [
            0.04870103587731175
        ],
        [
            0.0505412723355548
        ],
        [
            0.00833281680259488
        ],
        [
            -0.06037834631898792
        ],
        [
            0.0757432504729421
        ],
        [
            0.0022275736852590588
        ],
        [
            0.0036779772908819572
        ],
        [
            -0.03873697938578375
        ],
        [
            -0.026078897935145475
        ],
        [
            -0.008747759121001617
        ],
        [
            0.006096166437253944
        ],
        [
            0.015931454146534237
        ],
        [
            0.014640509980897632
        ],
        [
            -0.02725494826738041
        ],
        [
            -0.011711468304575567
        ],
        [
            0.02966565340276299
        ],
        [
            0.07924126860727078
        ],
        [
            0.03419265290073742
        ],
        [
            0.01614785494933907
        ],
        [
            0.02270174179454709
        ],
        [
            -0.00039959682897051577
        ],
        [
            0.003977113493877632
        ],
        [
            0.0717675657875245
        ],
        [
            0.0017617712370929192
        ],
        [
            0.01717108922237364
        ],
        [
            0.06276573743028971
        ],
        [
            -0.019975287834216208
        ],
        [
            0.013029765583125451
        ],
        [
            -0.04471796352448716
        ],
        [
            -0.009797854080733557
        ],
        [
            0.032410525296551834
        ],
        [
            -0.0043520879225887096
        ],
        [
            -0.01625921116283503
        ],
        [
            0.03798811615626712
        ],
        [
            0.02908341381793735
        ],
        [
            0.054946791964467216
        ],
        [
            -0.020159970312777258
        ],
        [
            0.04411456285729701
        ],
        [
            0.0722993805629826
        ],
        [
            0.006510755616681837
        ],
        [
            0.030886936340837987
        ],
        [
            0.003579425103616438
        ],
        [
            0.021063315076876372
        ],
        [
            0.015471269406449483
        ],
        [
            0.023899428816844922
        ],
        [
            0.06500851984604542
        ],
        [
            0.031446912245465815
        ],
        [
            0.0001721872026684833
        ],
        [
            0.0006671217887175596
        ],
        [
            -0.0005855435549411411
        ],
        [
            0.10923810140818745
        ],
        [
            0.005681479154924239
        ],
        [
            0.04271754934215153
        ],
        [
            -0.007731785690205545
        ],
        [
            0.009020776853218901
        ],
        [
            0.008570849296473839
        ],
        [
            0.05334267224007244
        ],
        [
            -0.014159034539986709
        ],
        [
            -0.01485229660580642
        ],
        [
            0.010730365845818384
        ],
        [
            -0.03244298382954077
        ],
        [
            0.09078228398617848
        ],
        [
            -0.019723310913176573
        ],
        [
            -0.034911289192063204
        ],
        [
            0.018449465053628735
        ],
        [
            -0.0076990167102239425
        ],
        [
            0.006255542578793385
        ],
        [
            -0.020917133553358655
        ],
        [
            -0.008353198302273865
        ]
    ],
    "bias2": [
        [
            0.04378790343936572
        ],
        [
            0.012829464648921896
        ],
        [
            -0.02946988280286361
        ],
        [
            -0.027147485285424027
        ]
    ],
    "classes": [
        "request",
        "issue"
    ],
    "weight1": [
        [
            0.020052167122264195,
            -0.0007089546598223383,
            -0.005264472832407545,
            -0.016618029607737162,
            0.014062685769925198,
            -0.014901585969540094,
            0.012053651124380716,
            -0.013232951714084994,
            0.014900632217009949,
            -0.003512549627758517,
            0.009000196665315775,
            -0.028785741225407977,
            0.0018305674970988377,
            0.020555351888723646,
            0.016746303900032785,
            -0.005944173135906399,
            0.0033304574617295563,
            -0.004053392285996923,
            -0.005936501402526956,
            0.01596195350705343,
            -0.0071974782864974345,
            0.021132246194886368,
            -0.0011826467989190584,
            0.008914051995752929,
            0.0046667543076882095,
            -0.009507462450098637,
            -0.006849784960320437,
            -0.003949084865912273,
            0.0023758587409737544,
            0.004284708794397444,
            -0.0021914156240362957,
            -0.00901917105703154,
            -0.015056061131627437,
            0.00559200255668595,
            -0.002823352701633948,
            -0.004468451174144922,
            -0.018550588229020077,
            0.0033937165796664144,
            0.021989386557550117,
            0.027569454190185735,
            -0.007539238228750104,
            -0.005067576155216585,
            -0.008490428810492792,
            0.012582740825321568,
            0.010877158701721965,
            -0.017190658994636537,
            -0.0008665698070783686,
            0.03502936564623456,
            -0.003140215660139616,
            -0.0003068662469128942,
            0.008393067986009674,
            0.011571774582243281,
            -0.00331138098095868,
            -0.009381770610304237,
            0.005451030634697338,
            0.0015244267268660705,
            0.006093843394489066,
            0.04144743928173647,
            0.006744981859276831,
            0.013576603535924077,
            0.010365074712440274,
            0.017253873445549663,
            0.01917335717585323,
            -0.012215470739230027,
            0.009610373358591764,
            -0.01145616118484935,
            0.019430094873777014,
            0.01749726265724012,
            0.012652574061915754,
            -0.014983809227865793,
            -0.015459983927280312,
            0.0003639508472139032,
            -0.010118919233144903,
            0.019130770365123926,
            -0.005027984658015393,
            -0.024563817343195946,
            0.0058014128965819724,
            0.006547972327672748,
            0.010414748352906558,
            0.001261472933437362,
            -0.02616442949316838,
            -0.006349385874255882,
            0.006590805803099638,
            0.061803103223814757,
            -0.010266480157484038,
            0.005915278351291383,
            -0.0019814309696735105,
            -0.001585013194731129,
            -0.0031235924750415388,
            0.0031105049486877534,
            0.005510281455027985,
            0.005660277660471216,
            0.0013018900363327708,
            -0.0009786945978638086,
            -0.001653399845534332,
            -0.0024141319148143553,
            0.0012866551375060379,
            0.02093885109219936,
            -0.0019753160469528127,
            0.019551016542942886,
            -0.00881309083281588,
            0.02119496133380027,
            0.0016626580819531,
            -0.0022485488980607733,
            -0.0005800373034487411,
            0.018480637030158377,
            0.03451661990298637,
            -0.005728292532447568,
            0.0020630068331805745,
            0.03485584227223661,
            -0.020210070546454642,
            -0.006028114211439684,
            0.01351634601308424,
            -0.012936964593275762,
            0.008230651679857868,
            -0.016437670729614717,
            -0.008571289223091954,
            -0.02635627755187996,
            0.010195331209372223,
            0.009143744916602184,
            0.003562543926873994,
            -0.0038625075849573532,
            0.009744008988647737,
            0.014050134787413378,
            -0.018562573954240498,
            0.006207665900070115,
            0.008778764314517561,
            0.0015679477462425789,
            -0.006584070846673446,
            0.004291647990484307,
            0.001999510464850273,
            -0.0006305968012541571,
            -0.004760608388224496,
            0.002749729915546365
        ],
        [
            0.01477817267875484,
            0.013818336339913903,
            0.01580500306325174,
            -0.01190382772115609,
            0.02807225395542526,
            0.013379959503854661,
            0.004508806061530195,
            -0.005199514444422993,
            0.04432484002681353,
            0.008788421519318117,
            0.0011125975243955507,
            0.000912442582316141,
            0.007537754735764946,
            0.02851454966992192,
            0.022378589228499193,
            0.013585057525282737,
            0.0036583757214572873,
            -0.014639347614398997,
            0.0093388717961782,
            0.051632470133126766,
            0.012559084297215183,
            0.018387473312878325,
            -0.0018145327409529435,
            0.005120003541731226,
            -0.0015683932440069383,
            -0.004362146402307673,
            -0.009353000298333825,
            0.01008337536020919,
            0.00924753507051559,
            -0.002977442245008589,
            0.014661143266451994,
            -0.0020058854235158407,
            0.009398782360554695,
            0.03386609167859275,
            0.02821754270917664,
            -0.020706096555917913,
            -0.007529571826264982,
            0.01672678553367392,
            0.03473766101225777,
            0.015181459783372046,
            -0.0037453657873476516,
            0.0045869615944253124,
            0.013303540404575959,
            -0.004615565961767173,
            0.007999932475997416,
            -0.004932566450393852,
            0.006863486566594154,
            0.024266990177354623,
            0.003289360807346277,
            0.012940195690922465,
            0.008349933680020632,
            0.004734643466765153,
            0.01854189748580349,
            0.0019469570974526566,
            0.01698800825416317,
            -0.002473614364479761,
            0.011599230007204643,
            0.0739372033919556,
            0.025357132502889117,
            0.02081959701227744,
            0.021971089521155257,
            -0.0065653533794901835,
            0.03775394546819462,
            0.003956060768712664,
            0.01781854675470795,
            0.007652559397649665,
            0.008905504601723943,
            0.014571142613118157,
            -0.00609865454914858,
            0.02083308587075837,
            -0.012035211544504446,
            0.0024467580327239805,
            -0.019310104928963893,
            -0.007706321764414108,
            -0.011655723503255005,
            0.017818301710029433,
            0.010344652495417406,
            -0.011298268193426572,
            0.024058116287411148,
            -0.0069146136106318645,
            -0.027039798814543325,
            0.007015901949486011,
            0.01594265179245272,
            0.09070650888487042,
            0.023471682293020168,
            0.011000045823779645,
            0.025878526015245394,
            0.0045692266136600984,
            0.013845568079191614,
            0.0006294574465965616,
            -0.01218950710419048,
            0.03134379051017532,
            0.0013018017768122111,
            0.018065265007822847,
            -0.0074643988741372146,
            -0.0020473668682777545,
            0.012135724437490336,
            0.0329802095293406,
            0.01321394397612081,
            0.07201561711995273,
            -0.0029471330448920577,
            0.003981563772342008,
            -0.00428509559345474,
            -0.007122114699648985,
            -0.015542723998972933,
            0.044007845903191296,
            0.05130447202288587,
            0.003740254236532855,
            0.009690115198292354,
            0.03812721646736657,
            -0.008431467847494543,
            0.006308060676187072,
            0.012944934764500819,
            -0.006174206634013362,
            0.027814379167926957,
            -0.012898696744944352,
            -0.003914441619207513,
            -0.002758482733347309,
            -0.027941880722765374,
            0.026134831592798675,
            0.010513424164961944,
            -0.004135348399598591,
            0.020571562175775587,
            0.0016745642825922824,
            0.014894501092737671,
            -0.005144423008577621,
            0.0010591333846520605,
            -0.01258875486186376,
            0.028003904580960262,
            -0.00548687051543919,
            0.008190585985107591,
            0.032074192258708875,
            0.017028838591427356,
            0.0021962174266088757
        ],
        [
            0.0027649930482218366,
            -0.011793465822832614,
            0.0060134761798058215,
            0.019362830840501454,
            0.0031273068170998234,
            0.007481100226064437,
            -0.004839508664442291,
            -0.0012615322858373769,
            -0.012821158002490398,
            0.01232253070828436,
            0.004874541266818201,
            0.01793174594954946,
            -0.00900264601715724,
            -0.00897368207833271,
            -0.0035064989119669094,
            0.008030971496305881,
            -0.0005760272322941652,
            0.00034453156444350314,
            0.0045221561958598755,
            -0.004455588566753547,
            -0.011164700178847445,
            -0.0001199330906616672,
            0.002067516589624929,
            -0.000568244808858473,
            0.005013705404864478,
            -0.006793740073251954,
            0.006571259668845587,
            -0.007434368611614523,
            0.002989490859459393,
            0.007847706510155896,
            -0.011320968609370558,
            0.011503561409058316,
            0.024591139726927946,
            -0.01807768421875556,
            -0.00830171895315114,
            -0.008715436152943713,
            0.0015659033073708167,
            0.014204651935695386,
            -0.001980652005870854,
            -0.013476229432949616,
            0.01363437498594761,
            -0.005998045310708474,
            0.011234121620219353,
            0.0031430102479380988,
            0.010308745659548228,
            -0.006510061249195289,
            0.02978112786458042,
            0.007226302304442129,
            0.006636141371364994,
            -0.0004988431392397359,
            -0.009370149960686894,
            -0.014023451066024024,
            -0.0027277611795902866,
            -0.00404345812247468,
            0.0028267571224842025,
            -0.008170634472975205,
            0.0062148938006730626,
            0.004473828960356596,
            -0.007058405074022839,
            0.010160144691913273,
            -0.005958467661676283,
            0.009786162875248586,
            0.0010155485124830645,
            0.016876714859156997,
            -0.011736913940930488,
            0.0033792805005094613,
            0.013146304687324964,
            -0.0026628410862840246,
            -0.01643870573206835,
            -0.019425891814764555,
            -0.02506440652676061,
            -0.025602389003047746,
            0.0003308287364168856,
            0.009206232524262762,
            -0.0004889862703921354,
            0.003325613381512312,
            -0.0022834440919253006,
            0.007501829397252131,
            -0.003049976316031553,
            0.0026150770797238143,
            0.008630196542166837,
            -0.011669486868915157,
            0.008334555787713579,
            0.0019065529970859589,
            0.010698289079164097,
            0.0062872182566881514,
            -0.008780160248205434,
            -0.005281890393255394,
            0.0016529783481988238,
            0.0020310962738909768,
            -0.004474338989879324,
            -0.006724480387865963,
            -0.006758476408149666,
            0.004930937658085391,
            -0.015503994324226916,
            0.0035339181882472585,
            -0.004131085503763531,
            -0.002528379073671117,
            0.0037827482178092614,
            -0.03258068118467841,
            0.005936805950272251,
            0.00010803853026615185,
            0.0032433088069508467,
            -0.0007534316380393211,
            0.0049537639154017665,
            -0.006990198427535229,
            0.009568193388110094,
            0.005643828554943137,
            0.01961156468876116,
            -0.018681397988762404,
            -0.016606881340563442,
            0.011081202499597743,
            0.00734351142696363,
            0.00044394081604556476,
            -0.017154648443080095,
            -0.0035355513299500283,
            0.010113161863942937,
            0.0020915432682021384,
            -0.0011598518547239623,
            -0.0029381188769067586,
            -0.009339146556265013,
            -0.005330203260835993,
            -0.013331856806589496,
            0.02509593942600213,
            -0.007100299765916687,
            0.012282781606565447,
            -0.010205818109576183,
            0.015361622338902708,
            -0.023192359560232502,
            0.009296491026047559,
            -0.0003536792487871091,
            0.016645300752127612,
            -0.013065340728440185,
            0.005464861382416919
        ],
        [
            0.00565241374662457,
            0.018227246106210945,
            -0.0009900567753211734,
            -0.006393627470808791,
            -0.01552641310832512,
            -0.003896439004806748,
            -0.005612809379023679,
            0.00802256187863655,
            0.006447055350603105,
            0.01721124526185212,
            0.014583310880095346,
            -0.011063540413671325,
            -0.024135030011737876,
            -0.017635484694907916,
            -0.0018803340838255624,
            0.011158411079241686,
            0.0031027228778376732,
            -0.018213239424997626,
            -0.009306920601193338,
            0.024761106665310218,
            -0.003468212238932625,
            -0.01083377945582309,
            0.006806044680724177,
            0.002751245391899796,
            -0.008265833334079178,
            -0.002861467136909729,
            -0.0028475341206547016,
            0.0016068314000976277,
            0.01208456328551963,
            0.009504969031406067,
            0.011137854318641538,
            -0.005917407064634975,
            0.0010119882680716032,
            0.002881666110151772,
            0.006883582696204722,
            0.006862606333176632,
            -0.0005828677062736879,
            0.01708302582970632,
            0.007172581504263691,
            -0.014111361121451874,
            -0.014620882434218347,
            0.015481163794603181,
            -0.004964880695765078,
            0.00039112910511253374,
            -0.008514556565308268,
            -0.001808682442393808,
            -0.008407083801802566,
            0.01472126144924715,
            -0.008796602555200154,
            0.002838099634198515,
            0.009403702392070676,
            -0.004494680316911008,
            0.015395212962892122,
            -0.016274616440811643,
            -0.0032573923764096465,
            0.0037428505749085485,
            -0.00945216397453144,
            -0.011893835859147479,
            -0.0012218570681876084,
            -0.007272453161494658,
            0.015417223609371838,
            0.008814385722078997,
            0.0026854049348337015,
            -0.011116945933741879,
            0.0072307938649022905,
            0.0071598263464806265,
            0.013114947660742752,
            -0.005084571342754008,
            -0.004334872439873394,
            -0.0045400216911617094,
            -0.005342291808168061,
            0.024562967933969823,
            -0.01633495263193012,
            -0.004791849151274058,
            -0.029978068368375552,
            -0.017497553800749743,
            0.006491324995131909,
            -0.007751240372331663,
            0.009559387653252741,
            -0.018167972836151083,
            -0.03634620006487648,
            0.00327144472334166,
            0.01733816254186128,
            0.0319962271517534,
            -0.004710078067595753,
            0.019775180450954565,
            0.013130130268771452,
            -0.01601097269934945,
            -0.004527709471293799,
            -0.004155058789074116,
            -0.012491703345860795,
            0.006499555980998153,
            -0.015791562853944653,
            -0.0023880256061154905,
            -0.0019694740801999245,
            -0.025884223632136626,
            -0.008347886285615025,
            0.008450309740577646,
            -0.015005845134691217,
            -0.0016304105669691202,
            -0.011469737253135976,
            0.0020013923937261895,
            -0.003334852142993201,
            -0.00856408352033665,
            -0.005637887345823028,
            0.007099215584656818,
            0.00900127015639148,
            0.007540830708559775,
            0.019667329870111307,
            0.010736369775333935,
            -0.008334332708530763,
            -0.023728227059630208,
            0.006933662256603845,
            -0.011054935631780699,
            -0.005359233227490785,
            -0.0009661893567580598,
            -0.008646628052344518,
            -0.0026684418349663588,
            0.012776720288524297,
            -0.005396815622024924,
            0.003263865509345367,
            0.019821301859669536,
            0.006106245030558857,
            0.004111309118637104,
            0.01630057348994107,
            -0.010559377814471804,
            -0.0036294492352709285,
            0.013053448117030415,
            0.022107377038666047,
            -0.011536110520040619,
            -0.0005366464685283199,
            0.009725405919692202,
            0.0020773060825347114,
            -0.003918162398080485
        ],
        [
            0.005630309937652318,
            -0.0013638585359636265,
            -0.01787678616581047,
            0.0035652852345589244,
            -0.0020746866130027597,
            -0.006906917915690174,
            -0.015703588163220518,
            0.010138224669717056,
            -0.020902196468347685,
            -0.014950733432497637,
            -0.0027584606256114337,
            0.012755579552727936,
            0.014286495260621281,
            -0.0036879756560366608,
            0.00039391933287100654,
            -0.01391512754708094,
            0.011301506841543832,
            -0.012317038200775579,
            0.000832487089415038,
            0.01494866748663026,
            -0.0020887140060257604,
            0.019685376200234195,
            -0.007532191649105644,
            0.0038840414093319715,
            0.009325606188639837,
            -0.002084712065855303,
            0.013863142642463189,
            0.007651537139588448,
            -0.015185059726288669,
            0.04028350003166443,
            0.008935024845332897,
            0.003393249626398245,
            -0.013522104490443802,
            0.005011009365817132,
            -0.0044072915945436355,
            0.0072363209907057285,
            0.006678620442890856,
            0.021490777727616126,
            0.0035904122717830065,
            0.012443941669789148,
            0.003724568515114425,
            -0.0026946013747611492,
            -0.001136528981915452,
            0.011802786357087322,
            0.011471133615068999,
            -0.004979523127412659,
            -0.008498096040802431,
            0.0035168881821057343,
            0.012407184147146443,
            0.0002468147200428536,
            0.01963224943879955,
            -0.0016312522046254172,
            0.0018247972782712127,
            -0.025216226533494247,
            -0.0045668723277611555,
            -0.0022984288560161143,
            0.005628589364978607,
            0.03461306810950214,
            0.0005415726075006344,
            0.0169877642205144,
            0.011677479507684278,
            0.012312110206546868,
            -0.0004682173904983144,
            0.016172627087313655,
            -0.008281054382690226,
            0.00800881498189308,
            -0.009112229105449425,
            -0.0030701480852947756,
            -0.01345053935971532,
            -0.0031208764717349006,
            0.005553771579834977,
            0.0014825366619201322,
            -0.009722947551361933,
            0.018378260828596393,
            0.0038382330793055464,
            0.010873438661160138,
            0.007832002055974419,
            -0.0064565409558088975,
            -0.019042077684507244,
            -0.006889799142829648,
            0.01627082114346785,
            -0.009742676406600646,
            0.010609025247666833,
            0.004370727366103775,
            0.00984160335559558,
            -0.015790610121825713,
            0.014119340064425865,
            0.002438699944223008,
            0.009651042320061577,
            0.0023646401900519172,
            0.008502746535712055,
            -0.002229023736803213,
            0.00862300163893337,
            -0.012925485549533914,
            -0.010860294848291822,
            0.007253243112183144,
            0.0020568058423312613,
            0.006002150246613319,
            -0.0015798677587636517,
            0.011984880465030476,
            -0.005140653212021685,
            0.007767919559628712,
            -0.004994674520960035,
            -0.003606496733978697,
            0.013520378978874816,
            0.015323436354256929,
            -0.0059645891441801845,
            0.007176644128116561,
            -0.007943234815922805,
            0.01981091270758052,
            -0.017587278177263715,
            -0.01070068933287304,
            -0.003900286574433872,
            -0.0008720752184570869,
            0.0166847326979161,
            0.01113541018458438,
            0.01622070278194477,
            0.01323396956315856,
            -0.0021311625250636603,
            -0.0014738326393924559,
            0.009480012877845419,
            0.0005958510240916266,
            -0.00038547761181275764,
            -0.013352027230151916,
            -0.0010622584693687107,
            -0.028326883080703167,
            -0.003341593977479433,
            -0.011008605860785217,
            0.009095984768100078,
            -0.00399393923375411,
            -0.004500218837578022,
            0.015641295939411482,
            -0.009100870970344411,
            0.0040884601864645724
        ],
        [
            -0.01895266947476466,
            -0.0035856090753683865,
            0.0016596855508180736,
            0.008658538545594107,
            -0.013469732183001359,
            0.0027321429864212306,
            0.003254653189638682,
            0.004117612651704668,
            0.0008627650971194754,
            0.013838420997907655,
            0.008288733241499549,
            -0.009892428669740029,
            -0.01195861510324482,
            0.013587312854623178,
            0.014715022614465981,
            -0.013916938760540336,
            0.004502177420378455,
            0.004741455702679174,
            0.011533790534367431,
            -0.004611861010193326,
            -7.107258320305734e-05,
            -0.00524426079670325,
            -0.00040893828700009493,
            0.0009038496788827996,
            0.002056543258721333,
            0.003135700091482608,
            0.014495453740359862,
            0.007822681749732349,
            -0.01181103172771823,
            -0.004593870072637996,
            -0.009440914662603609,
            0.028239640859447745,
            -0.000525998804341019,
            0.0038866091054326137,
            -0.005215690028081954,
            0.005000256241783682,
            -0.009461115313502022,
            0.015725683318124368,
            -0.005666049222437115,
            -0.019696656603670645,
            -0.0016146838588516543,
            -0.02304907937770138,
            -0.00031274075528009876,
            0.005865133724069059,
            -0.00043139529551266577,
            0.024173794490050228,
            -0.007424981568224308,
            -8.575386294666943e-05,
            0.007862643190057101,
            0.0025192399496127525,
            -0.022807948565900068,
            0.004629919583040656,
            -0.0055041659244478795,
            0.0002393877441332461,
            -0.012704607763854797,
            0.0075702116380371165,
            0.0010881595666424446,
            -0.013565026240933054,
            -0.001787812774471981,
            0.008959267782673749,
            0.006350031660219244,
            0.005726253400356281,
            0.022607502625553916,
            0.014444770396907324,
            -0.005328090280190727,
            -0.0013873624258970328,
            0.003895435529939394,
            0.0033602181936500364,
            -0.026910506223808674,
            -0.002930303477696041,
            0.009925596772149848,
            0.005614973099660688,
            -0.006803310124252818,
            -0.009436598248407615,
            -0.00132583783336524,
            -0.0025451185943199165,
            0.0053116379345622515,
            0.003910055930920051,
            0.0027482327118136117,
            -0.00323173107469108,
            0.031027356084166534,
            0.004736506212343539,
            0.011402581081781153,
            -0.013619644521391772,
            0.03025646983693376,
            -0.008326752954824275,
            -0.011042007635359629,
            0.0068998307652835145,
            0.004281589439229426,
            -0.002119654368533118,
            0.019844526450903406,
            -0.011487042296369458,
            -0.010903383324548148,
            0.012518981216640362,
            0.006147665416706069,
            -0.01879870560888308,
            0.0034397758616078406,
            -0.00695466534683503,
            -0.021468985418794467,
            -0.0009332966702306814,
            0.00456570678156532,
            0.005756565094888766,
            0.02298738996480382,
            0.0010251479322453193,
            0.007022331067078203,
            0.0017446084289616302,
            -0.015055210055089254,
            -0.009341818431479491,
            0.0038935378208112296,
            -0.03706999622922049,
            0.0169900072876268,
            -0.006568848554718581,
            -0.003592240957107388,
            0.009794075327456278,
            0.010646493883161544,
            -0.013634052056346225,
            -0.007994101898390601,
            0.0049929300146391116,
            -0.005955432374168804,
            0.008616231013412039,
            -0.02086390565456526,
            0.003178134924195725,
            0.0062338340379876536,
            0.004800732964097345,
            0.008579395422703051,
            -0.0032455572428561463,
            0.015544054905957361,
            -0.0027192750364206466,
            0.0027726049309724343,
            0.0014982141050749887,
            0.008143431291489254,
            0.0033217990477688464,
            -0.014640535735805918,
            0.008690180186146498
        ],
        [
            -0.004900526273243793,
            -0.005516592414109898,
            -0.009239526345945492,
            0.0034397880736986054,
            -0.0010468729937863626,
            0.01367913722306597,
            -0.036022354013795124,
            -0.014684881514544435,
            -0.011729501679872533,
            -0.009740254610624105,
            0.01983454572189916,
            -0.019792547329506763,
            0.011070297741306917,
            -0.007021445502384177,
            -0.006398452817142936,
            -0.0007648077848404797,
            0.0031014790069610484,
            0.007212136616825372,
            -0.016021152895737086,
            -0.011230087333837593,
            -0.014654968852693484,
            -0.01063043711163825,
            -0.024240352883619275,
            0.003505390534989903,
            -0.007566190476126414,
            -0.028247372697765026,
            -0.00259926126756706,
            0.002580209029108325,
            -0.0008238701739693941,
            -0.0029842036815273497,
            -0.002788775090627362,
            -0.0017556608314554818,
            -0.026628778494784646,
            -0.0023031709842541923,
            0.002870200072013611,
            -0.00013278940305143632,
            -0.003948653655225036,
            -0.0020884179581606363,
            0.004537191289976852,
            -0.018745255615290383,
            0.0019971255416024146,
            0.018960973035743844,
            -0.012407998425126274,
            -0.017583213479644186,
            -0.004449997704415513,
            -0.015445315342178976,
            -0.02013711065797129,
            -0.007246870563687227,
            -0.007747916802858938,
            -0.00789939179984189,
            0.0052712564165990575,
            0.02070157857895166,
            0.008185844082847244,
            -0.0115389187120102,
            0.005305855368823597,
            -0.010877856894742549,
            -0.016949914964691132,
            -0.05096208151766948,
            0.003831530209988875,
            -0.015236562084776115,
            -0.008368431322963128,
            -0.004976290852412527,
            -0.001502103168776895,
            -0.02461291076895451,
            0.003167235269322874,
            -0.021206505267987362,
            0.008732252371303156,
            -0.021305838767763794,
            -0.009783418010418238,
            0.010068851560544066,
            -0.0036047177079781855,
            0.0033653923829818884,
            -0.02023003229552387,
            -0.009676355559754605,
            -0.020600125162905894,
            0.00039372680540864045,
            -0.0013337291105521678,
            0.005372213548944044,
            -0.0009210616195733058,
            -0.013992102858390051,
            -0.037659730016148314,
            -0.0110333954826534,
            -0.005880908644503527,
            -0.009352742998302122,
            -0.04457454293320435,
            -0.01127799684770464,
            0.002702252047491527,
            -0.01341594052134701,
            -0.037925658789850075,
            -0.017448252109859785,
            -0.033796769449349326,
            0.0018084411147344884,
            -0.01006832959910422,
            -0.017721084363473114,
            -0.010131174362212704,
            -0.022424218568626995,
            -0.005750723868894046,
            -0.004681256926608075,
            0.005325382739123126,
            -0.04063364077492373,
            -0.007750827871124046,
            -0.010404627803167142,
            0.006827938877279633,
            -0.028306589026783936,
            0.015732430532709687,
            -0.01847030063862807,
            0.0008883659228616867,
            0.006723452301673399,
            -0.01173907430789179,
            -0.0056478143047513155,
            -0.010715861325672415,
            -0.018852270358504866,
            -0.00244506811163808,
            -0.0043684145315255754,
            -0.005230628644078423,
            -0.022998207311022225,
            -0.012406653451995554,
            -0.03556679436237241,
            0.009689693346612634,
            0.005568815403596979,
            -0.012902669822956772,
            -0.0026860634235198882,
            -0.010379187675579946,
            -0.012775790397955566,
            0.003331397204007461,
            -0.020217272713462756,
            -0.006060755050722531,
            0.0005657954209204088,
            -0.011939730404957369,
            -0.00757802020106019,
            -0.006243805009523772,
            -0.018782918297653536,
            0.008471149398230302,
            0.005759619589393549
        ],
        [
            0.009255012147023857,
            -0.012238701458145838,
            0.0030210368339787155,
            -0.00476284136643094,
            0.001682654913700286,
            0.014598873876987238,
            -0.004455212900971187,
            -0.014191487771444869,
            -0.014364239121682096,
            -0.0028479123286973213,
            0.012198743790306214,
            -0.014003232366141177,
            -0.0019054829766145195,
            -0.009931217650829705,
            -0.003318839639582052,
            0.009104236030030839,
            -0.009484396564537968,
            -0.004234782972255359,
            0.004147439057428238,
            -0.003745473770967388,
            -0.001582964782902192,
            0.002601457494620138,
            -0.004815777816927821,
            0.005280034220718364,
            -0.003145638619172873,
            -0.013450100202683753,
            -0.012952578852810872,
            -0.006925617345384146,
            -0.001995607179962165,
            -0.009737031387063097,
            0.0031801429641916887,
            -0.00890271552108249,
            -0.0015519393483756974,
            -0.0165158259574356,
            -0.00839988914612247,
            -0.022982058805378517,
            0.0054420484443369055,
            0.0031663723570395756,
            -0.02664125939262139,
            -0.007877117597743748,
            0.003937877312493187,
            -0.002281406907004562,
            0.002612301424218976,
            -0.009732675852492401,
            -0.0018611541292278377,
            -0.0005348369273515635,
            -0.012164754764035595,
            -0.010862066509905757,
            0.0019975955519262755,
            0.00932721413688092,
            -0.005301198002000516,
            -0.007685231661527833,
            -0.001920754356763053,
            -0.0038668117684928878,
            0.0038560229234432526,
            0.0071829073575434286,
            0.012911889028508759,
            -0.036412814985142455,
            -0.022772979966603657,
            -0.0006962453945512911,
            -7.412715258012107e-05,
            -0.0018695501653274958,
            -0.017852961991903785,
            -0.024325085126471132,
            0.005079843366153793,
            -0.009172549008777613,
            -0.018637170353290197,
            -0.008714220655949576,
            -0.014504611128674587,
            -0.0031702801691153625,
            -0.0036413900272983307,
            0.007478680942612047,
            -0.0026439772972616828,
            -0.01712932527458527,
            -0.01675740477692731,
            0.01130725354529131,
            0.015666862010961444,
            -0.0023774809814536353,
            0.0020616256076629457,
            -0.02098113855637267,
            -0.025680923726649048,
            -0.011740236765428439,
            -0.003571875256030163,
            -0.023549631338329408,
            -0.017616082341297103,
            -0.0049101443269911026,
            0.006793011449496629,
            0.005017698520741062,
            0.00036197462760435324,
            0.017634662862199217,
            -0.006344047103008461,
            -0.005251033939389392,
            0.003877346627429501,
            -0.011216810502317204,
            0.009105210545561019,
            -0.006411078151978892,
            0.0132269398510864,
            -0.009339904140681216,
            0.02212812353297963,
            -0.021692687926899403,
            -0.0020269390770746233,
            -0.0020698861013232917,
            -0.021810279670819496,
            0.0033573392631799795,
            0.0011956297112431626,
            0.0010931836390543528,
            -0.026639184970265614,
            -0.015465610399686571,
            0.005866185186008445,
            -0.00818164492006784,
            0.015944646318222212,
            -0.011619727251704591,
            -0.010307980277587836,
            -0.0027193879968455043,
            -0.01975730141873837,
            -0.009080311462250761,
            0.005852584362947763,
            0.010489713299675435,
            -0.000399445165466679,
            0.01640553648555269,
            0.00410872937999071,
            0.0019136391513892002,
            -0.0047828482930021045,
            0.001869370457719954,
            -0.010217352354649354,
            -0.0014091075239015822,
            -0.009809918051210044,
            0.002590319017920037,
            -0.007524338732032599,
            -0.014795800346161122,
            -0.0024070050175198634,
            -0.016225536806155447,
            -0.020482004587407752,
            0.004838836493413234
        ],
        [
            0.015586882545223812,
            0.0024000649178776354,
            0.004343750987466765,
            -0.008708015526080607,
            -0.009544787045690863,
            0.00611157305679736,
            -0.019878295313946217,
            0.012496544516394108,
            -0.01622922423514057,
            0.021789762252541242,
            0.006769826519247658,
            0.0005830738274408398,
            0.011156673719083944,
            -0.03192800863271536,
            -0.023296630904984197,
            -0.005088794930404499,
            -0.0024060440159656186,
            -0.017632498009912314,
            0.020580345679124708,
            -0.019035239404339835,
            0.025852925707721113,
            -0.009222703852300456,
            0.0025135338575477044,
            -0.0035524151349696164,
            0.0009611414233952064,
            0.005898469979720838,
            0.01543627691666111,
            -0.017836659509924663,
            -0.0064975714611269445,
            0.019865651109424003,
            -0.01279426156313522,
            -0.013402091759035006,
            0.0035460205211282794,
            -0.024600040932147432,
            -0.017745959882248336,
            -0.003122296613778122,
            -0.00040595012317277534,
            0.0012944933389410843,
            -0.016229310369610984,
            -0.011370794803411738,
            0.008481476364581443,
            -0.0020633091204487982,
            0.0002117182858814892,
            0.004286587396338862,
            -0.03979464166090112,
            0.00764863064608022,
            -0.02508843308077979,
            0.0067833298941027565,
            -0.006912689567621623,
            0.015803585770438756,
            -0.035166038909366315,
            -0.008568006374775236,
            -0.002326389439531277,
            -0.0024701649088573535,
            -0.00635229103197919,
            -0.002605605906223512,
            0.004230032095832759,
            -0.05409933707606638,
            -0.01787737708417842,
            -0.0018581085678032868,
            0.0004895629245249104,
            0.00046846204858301294,
            -0.019568428612554173,
            -2.5985044896890997e-06,
            0.0017405446616172856,
            0.00848006316325116,
            -0.007699436173329145,
            0.00346994922190781,
            -0.009230779570843294,
            0.01885972766745657,
            0.025212217272394304,
            -0.02396727876619055,
            -0.005538188922117395,
            -0.011131614338941748,
            -0.00982160958028669,
            -0.004473081617533774,
            -0.013444160659349077,
            0.002776375222068621,
            -0.00938127671089416,
            0.0019547089128409733,
            0.012389227643776396,
            0.017626089014166478,
            -0.0035751421401901302,
            -0.048073922959394604,
            -0.00194094430005039,
            0.0009894224603249626,
            0.011277513449502294,
            0.020664612139743813,
            -0.008155473512047462,
            -0.007299266122876394,
            -0.0017895176802251193,
            -0.00013304221307496947,
            0.003417429753444473,
            -0.034885205383790696,
            -0.010372891693549846,
            -0.009245412115760477,
            -0.01749405421729222,
            -0.0247522666625047,
            -0.005451203416404974,
            -0.008161598951376964,
            -0.014243336751810016,
            0.007854406153827716,
            -0.007016485321639636,
            -0.004073696851743843,
            -0.026603901095533497,
            -0.019804721289458753,
            -0.04478479283128731,
            0.0021633295762047405,
            -0.013142010325268221,
            -0.05162537592039661,
            0.0042859311279525485,
            0.01104405342444765,
            -0.004158767543470862,
            0.0032132583346258753,
            0.005144115605663222,
            -0.00017250865259717214,
            0.0036334791857426506,
            -0.005419255344063249,
            -0.007754704347039222,
            0.013812423303927165,
            -0.00011734214376557669,
            -0.00710500674666955,
            0.02049940659434452,
            0.0023152332573319204,
            -0.017745354575302807,
            -0.010606256122740847,
            0.012172865230908663,
            -0.006979349709629313,
            -0.026687562772971775,
            0.006440999879429353,
            0.001836335742581206,
            -0.022161505711189484,
            -0.007283275742731108,
            0.011459273541343218
        ],
        [
            0.02420435961929285,
            0.0020314594339461657,
            0.009799695213739506,
            0.018829411684217208,
            0.01830963827497731,
            -0.00215171573665096,
            -0.0024910001772612926,
            -0.007111253281922504,
            0.003871284434411168,
            -0.006712902235837956,
            0.0014871869324832804,
            -0.006207805476048914,
            0.010813617570485984,
            0.012310370296945447,
            0.0035478108969085997,
            0.010912518146052319,
            0.005241337201187009,
            0.006536194488487747,
            0.009079839991702648,
            0.017139240441350446,
            8.707938704130318e-05,
            0.01446917794452955,
            0.0028811661683274406,
            0.03147901398071173,
            0.010751203710683523,
            0.01337073094337353,
            0.011778365859364766,
            0.008317463838032882,
            0.015180573059279686,
            0.00048527365239958085,
            -0.004424215801223988,
            -0.006594700086909725,
            0.004941990118824517,
            -0.006171233782234755,
            0.004389455566523165,
            -0.0075191821542614015,
            0.006113322648679387,
            -0.004289004989603474,
            0.022131446039510942,
            0.019365823310098826,
            -0.01382015744865812,
            0.019489211642114403,
            -0.002020821716900442,
            -0.007510442396985688,
            -0.004489488317684236,
            0.005378952685119091,
            0.022226770967615852,
            -0.00045495890967668363,
            -0.010211889718168202,
            -0.011460014291977596,
            0.01837246653035982,
            0.026343315293317026,
            0.0012318891199399544,
            0.004918459505084906,
            0.004615933427788009,
            -0.0008419843225801028,
            0.009761302266997274,
            0.032255824487797326,
            0.00560082601959542,
            0.0009617288770309598,
            0.018549496373229946,
            0.001067459206520436,
            0.00993919000503068,
            0.0010558500784733468,
            -0.008124038321904455,
            -0.004547175521041274,
            0.001590570384482216,
            0.0020636853859295396,
            -0.011203992955553086,
            -0.012339367718601417,
            0.015760770323779538,
            0.019083503789406483,
            0.0075858710902941984,
            0.02399669271147763,
            0.003858436950994722,
            -0.0011464686490594742,
            0.008774994569593067,
            -0.01761851141944116,
            -0.006264230933077377,
            0.0062658260765723305,
            -0.006409463506166674,
            -0.013012044650600024,
            0.010472886946227998,
            0.04688976231648889,
            0.008556370841094233,
            0.0035845504362419225,
            -0.004472976569893807,
            0.0003664173727461391,
            0.004033561988469164,
            -0.0039234034011539215,
            0.005967345689617227,
            0.005045937478800777,
            0.005382764448697395,
            -0.012806330162745856,
            0.01035233856088696,
            0.017186027648967324,
            -0.00013715801506612154,
            0.0023861009898229982,
            0.008799967363350368,
            0.014972133084646276,
            -0.009905805009869774,
            0.01847535495853585,
            -0.011181921017055339,
            0.006836770795869698,
            -0.006728836363480454,
            0.02687274177439901,
            0.02524194822291518,
            -0.0006723318237922316,
            0.005381217811778913,
            0.028305275492151002,
            0.008159983338066161,
            0.007814199052500139,
            0.007518921603146666,
            -0.0050094979221142885,
            0.010528313705903774,
            -0.012816411523164031,
            0.00970341562151404,
            0.008518046519436138,
            0.014192513801707309,
            -0.003836177127702799,
            0.003763735125972104,
            0.010888786360802724,
            0.0025941385242370225,
            -0.005398240697304649,
            0.007183964979182924,
            0.0012146893312523922,
            0.01014572937915829,
            -0.005514575243191961,
            0.010913945781159893,
            0.002693629957018031,
            0.009474899384246702,
            0.006790145273351258,
            0.005918134286264311,
            -0.0017094611720446453
        ],
        [
            0.0020763485739805393,
            -7.930880984854823e-05,
            -0.0034667067777472593,
            0.0304640860140993,
            -0.008602015316801407,
            -0.012925821975729246,
            0.0019318466689997944,
            0.0011934377009649231,
            0.008789395501059952,
            0.028315902746706447,
            0.025177801020845502,
            0.008377809583826359,
            -0.02559325981121705,
            0.0018312191358601062,
            -0.013269446093677317,
            -0.005618148420495502,
            -0.012108360550031845,
            0.004367570268561524,
            0.005693992114901344,
            0.007669640809434767,
            0.018367431776386344,
            -0.0003119817602768478,
            0.011360053778526214,
            0.00869599373373736,
            0.0003508564147353958,
            0.019088552697793745,
            0.008100803124019647,
            0.002531074090625235,
            0.007381276042734775,
            0.015463182140043875,
            0.005319466461228538,
            0.013557490745758426,
            0.013211425291816112,
            -0.017637199304373186,
            0.01591141210125456,
            -0.009182737083453244,
            0.023145017797306024,
            -0.0015331029054508995,
            0.005108876671900035,
            -0.0016943751653776494,
            0.011329860781583214,
            -0.006272180447225648,
            -0.019458423138742086,
            0.008138732066981997,
            -0.006033956114883737,
            0.005782491791900251,
            -0.0014115658610494414,
            0.017860650822605656,
            -0.0017497488077667079,
            0.011464803685609945,
            -0.011568071112188065,
            0.015313398883090076,
            -0.00675440259857097,
            -0.023815330017628148,
            0.02522892367012956,
            -0.006909310752075568,
            0.016902801213506617,
            0.02357642907385791,
            0.006043592427865246,
            -0.0022035038312571403,
            -2.7500279211927434e-05,
            0.012350704561620128,
            -0.0051920300921692395,
            0.019870064250719004,
            0.009394246621701826,
            0.016866130506727577,
            -0.005441554863392875,
            0.019677796696648136,
            0.011569308837177886,
            0.0127548481224098,
            0.006247626528561416,
            -0.010218872656983118,
            0.027117940092433485,
            0.009463768133692887,
            -0.015702544646576277,
            -0.002082740820760928,
            0.010773438648517849,
            0.03205882545325555,
            0.020311815163520645,
            0.02137872831329313,
            0.045774271353053356,
            -0.0012020189961733881,
            0.007856689707740951,
            -0.023782855111230596,
            0.02272099477246585,
            0.0033210553051388073,
            0.021790715172952717,
            0.025558383635155023,
            0.006810446480162308,
            0.0043037303173359435,
            -0.0050277558190031,
            0.007764319971315464,
            -0.0041020696344527445,
            0.0022275466188810726,
            -0.006702221066242339,
            0.0031937183367072605,
            -0.015258944196944466,
            0.004958593498283881,
            0.012483740137595997,
            0.023647412197234183,
            0.02521041316469105,
            0.00264336064961863,
            0.015009294743162538,
            0.01115321432275286,
            -0.00882621074476317,
            0.024949836949576917,
            0.009767059246527062,
            -0.0006925742662998135,
            -0.008916972952586665,
            0.0037511624725558535,
            0.02016030318367095,
            0.009785441847349011,
            0.0012496125025131095,
            0.0021910072391869554,
            8.387051517141828e-05,
            0.022700901805480143,
            0.020010744802241326,
            -0.004447318762442591,
            0.0035366456496163066,
            -0.012652146165317452,
            -0.011621264568544058,
            0.005381323934910027,
            -0.002433648897140664,
            -0.023239611311015044,
            0.0062522652673561,
            0.02692324701372729,
            0.0307323021944596,
            0.00606672022091104,
            0.014291552642705591,
            -0.022137940784583372,
            -0.008698306120594839,
            0.005026793276660083,
            0.0028247676120508555,
            0.018976319409407413
        ],
        [
            0.011570728463105202,
            0.017011312944050096,
            0.024740775132023465,
            0.006254606094247969,
            0.034997900471130314,
            0.0004970326045374207,
            0.004369029226139882,
            -0.012556451187622214,
            0.028169287863888174,
            -0.010616995518927239,
            -0.010779016421119796,
            -0.013882185058227817,
            0.005717552184440518,
            0.03780732650314194,
            0.027908969249669718,
            -0.02752480900601646,
            -0.013560946092130027,
            0.02835851809860716,
            -0.011454475508271854,
            0.024644713692263585,
            0.005255766653577708,
            0.012402360638978269,
            -0.007653704787250385,
            -8.521662422105221e-05,
            0.013430834832470715,
            -0.012525642668242642,
            0.004751753928672655,
            0.014703091988652734,
            -7.677630512608729e-05,
            0.01860907837434808,
            0.0018783768939449085,
            0.0011587069715774424,
            -0.004247823088406861,
            0.01110430596721735,
            0.0003530541641014898,
            0.006148491701890627,
            -0.011457186316768684,
            0.00833216287097167,
            0.010264249795359602,
            0.022086690300688716,
            -0.012435472675960605,
            0.003321656571959812,
            -0.02034898704338462,
            -0.010023988597637637,
            -0.007363683221662481,
            -0.003559348277098904,
            0.020756329424066366,
            0.008016027235744022,
            0.0024723040431862318,
            0.0032427408075529586,
            0.011314437515040545,
            0.015368827269286374,
            0.013267732568616958,
            0.009931850049289181,
            0.008058972923177041,
            -0.013709216299989998,
            0.011883039297192458,
            0.030562034225868038,
            -0.024159648082831213,
            -0.009840158032531403,
            0.02715656816057043,
            0.009830854916330274,
            0.03039002661228923,
            -0.0071406002082238925,
            0.023680910920451218,
            0.0006388504000739581,
            0.02012990892039912,
            -0.01424732281924648,
            0.002998437756057859,
            -0.017083500654994997,
            -0.01342857750392085,
            0.007593391125698621,
            -0.015031912315657005,
            0.016116993867372063,
            0.00016963191794692,
            -0.017474458945017368,
            -0.010621007466964925,
            -0.013868089640022145,
            0.000763418958010092,
            -0.0017354803460887449,
            -0.03852854442593251,
            -0.007427435430439273,
            0.006737762173312981,
            0.10560421260286552,
            0.0019668884557236845,
            0.012577698214883021,
            0.005824054511271993,
            6.276937348273146e-05,
            -0.0011583581112127616,
            -0.0048282574311180795,
            0.009390172409166874,
            0.004076133026899576,
            -0.011704796443444312,
            0.024096076200270055,
            0.0023880317106844146,
            -0.018584448393149627,
            -0.013203318708898348,
            0.03817288906890759,
            0.013360112216514114,
            0.03853049802487317,
            -0.019150569780433654,
            0.011363563022746801,
            0.00410740904159137,
            -0.01597481066837885,
            0.011528582853288007,
            0.02420238273936936,
            0.048550832618978634,
            -0.022535085736528102,
            0.009756986113152292,
            0.07296777726930581,
            -0.008787615549914208,
            -0.00447014411629025,
            0.012175433148260013,
            -0.013172198052214862,
            0.019876661689121496,
            0.0035182333574730897,
            -0.016358022831797277,
            -0.0003218691865574316,
            -0.01460987211325642,
            0.012160989030391482,
            -0.014802911160928542,
            -0.016104284286143248,
            -0.015208223733866008,
            -0.01629122111015373,
            0.022597704373189382,
            -0.011980008274962945,
            0.00217442819650875,
            0.00449233660361665,
            0.010848914139299795,
            -0.011324029211585948,
            -0.006470691811712548,
            0.025676059614440822,
            0.030996166926568945,
            -0.0027374060073250103
        ],
        [
            -0.006232799937115167,
            -0.005203610271366949,
            -0.01112314290206408,
            -0.0069045943424358045,
            -0.01062928762372351,
            -0.0025463306546560224,
            -0.035438427782093405,
            -0.018994630996214505,
            -0.025399554033056743,
            -0.015487780304823458,
            0.0021807849778616916,
            -0.023676589910959757,
            -0.002235748874552203,
            -0.010713798803867008,
            -0.009316815621596366,
            -0.010677023428943548,
            0.002112336611600396,
            0.023039077986427507,
            -0.01477765532959477,
            -0.011130274437141317,
            0.00938844819762099,
            -0.00998566414789205,
            -0.021355119259568272,
            -0.004426554096701531,
            0.0008108320579792591,
            0.01791237993578774,
            -0.007475262685796005,
            -0.00586680439697456,
            0.00375235451102576,
            -0.003469847724601862,
            -0.0014981793969629565,
            -0.019615513598684055,
            -0.014593495585808889,
            0.010773765676263815,
            -0.009520840716488203,
            -0.011364331013176956,
            0.0016347520621526473,
            -0.014251561722623799,
            0.007153334491047734,
            0.006953803347179946,
            -0.01102969548924372,
            0.0075949359299509415,
            -0.014282543549019998,
            -0.010895510984630416,
            -0.01389550238470516,
            -0.008071422329650278,
            -0.024991892723335875,
            0.010852513203699437,
            -0.00810140030643709,
            -0.010267628520914295,
            0.01407410594657888,
            0.0017023944840605532,
            -0.011254527462501987,
            -0.017641757461145227,
            0.015129386008096764,
            0.007390938362426234,
            -0.010142267145077957,
            -0.05204393869667786,
            0.007155367850567184,
            0.01887159215579567,
            0.01904795206979429,
            0.006890431611337313,
            -0.0019102917139960775,
            -0.03072451904177715,
            -0.0031634885581144074,
            -0.029911433272176505,
            0.021345515589126642,
            -0.003483332154224473,
            9.523705057769283e-05,
            -0.007333139355344961,
            -0.022771344517712844,
            0.018615651022774897,
            -0.02526258055699398,
            -0.004379082110154881,
            -0.004012923347855867,
            0.014587732107662718,
            -0.020262064158338595,
            1.0547699418268316e-05,
            -0.010895350051014767,
            -0.008022548011324177,
            -0.009076966337414418,
            -0.00517489822461975,
            0.017494757621532464,
            -0.02094047949253152,
            -0.015606705155333394,
            -0.005694009294313395,
            -0.002070850063371384,
            -0.003618591524039992,
            -0.014005944466686508,
            -0.005002345715699318,
            -0.027114423423458954,
            0.00613951564079822,
            -0.012891300394749205,
            0.0010978294611235116,
            -0.014321309792231585,
            -0.010832645903029011,
            0.007454721552556852,
            -0.008605792957370573,
            0.01521865766667497,
            -0.022343442489209765,
            -0.027914440379218326,
            0.02261814537387174,
            0.0038759775759613854,
            -0.004962782032190876,
            -0.0017693655722537192,
            -0.01750161234918067,
            -0.001634649084136457,
            -0.012260699612397164,
            0.0021777049921441315,
            -0.002264739008663558,
            -0.017559495277280932,
            -0.04132414639335952,
            0.0005378240442707993,
            -0.00459581833172368,
            0.008897618322777861,
            -0.029691155480396945,
            -0.024749144005367808,
            -0.010346452275262218,
            -0.01506100906366711,
            0.007380536853593031,
            0.013305061151948568,
            -0.00010089768356528128,
            0.003101443299904999,
            0.010414396343771429,
            0.01569755509912194,
            -0.003678322013658868,
            -0.020787625302330387,
            0.008041228510204734,
            -0.007456440496702341,
            0.0004805070666646386,
            -0.006985706620498542,
            -0.023290411224270054,
            0.0059111627369540344,
            0.013810612207685247
        ],
        [
            -0.002010023394473839,
            0.004077237645283378,
            -0.004522025554266311,
            -0.010432352477609695,
            0.00459530837503521,
            0.015547727690826197,
            0.019306347949676388,
            0.004187216614933948,
            -0.003927883118700448,
            -0.014718109976215902,
            0.008990756901924074,
            -0.00094760521994218,
            -0.0036333479693442554,
            0.0030473251506661827,
            -0.004842959930770168,
            0.01480553355807255,
            0.002247690744851435,
            -0.01067390166601655,
            0.004520224517394542,
            0.009666087802724928,
            -0.0012006982923176213,
            0.012031944294908059,
            -0.012839548397158588,
            0.011959463735546157,
            -0.01614724026587447,
            -0.009837962672576101,
            -0.017846379365809115,
            -0.0009313268625585443,
            -0.005103225868951664,
            -0.004074412876773878,
            0.0033784764229905827,
            0.0027720869184383935,
            -0.002649434407678184,
            0.010381044051564033,
            0.018363657192289974,
            -0.004563536858391726,
            -0.019236878462661998,
            0.010840426652136095,
            0.021583935232066736,
            0.013430592966912243,
            0.0043177932721117415,
            -0.004845543455837699,
            0.0014087998484892162,
            0.0044716219386177715,
            0.00954137922316658,
            -0.009809766602069562,
            0.01542580652224191,
            0.009581583900552562,
            0.007403350806073053,
            0.0015436310416786037,
            0.011961982003337488,
            0.018418954526295734,
            0.0026568652168629556,
            0.005314069077079145,
            0.02702643975684561,
            0.018091288889640282,
            0.0065483781166983,
            0.03556808755927112,
            -0.0107592956755103,
            0.01805476117251314,
            0.011926266922347802,
            -0.014538555932570365,
            0.00951455288432154,
            0.005570401759339374,
            -0.003629478607734094,
            0.013267119176989584,
            0.01831069349348538,
            -0.011286624734587577,
            0.005528193802292949,
            0.0006717731858656477,
            -0.005964756127209745,
            6.794731032586856e-05,
            -0.011002100345512316,
            -0.0064070867706131,
            -0.008597986202554744,
            0.00502825786701433,
            0.0184413281556812,
            0.012826252172901093,
            -0.0009151905817130125,
            -0.0053780421512183004,
            -0.02304157730325037,
            0.008401393636336296,
            -0.013150731080848578,
            0.02030167388043274,
            -0.012793322041744508,
            0.0058455325499394755,
            0.00011931830469451334,
            -0.002015945881135842,
            -0.0014232850276798053,
            -0.0017819578647685016,
            -0.012858788636606382,
            -0.0016829742901869561,
            0.008247407822797048,
            0.00603655529333714,
            0.007910347278627198,
            -0.008884365494956975,
            0.012393412239413494,
            0.026986932699343373,
            0.001072096031435247,
            0.011763347802895029,
            0.00035326309366569747,
            0.011185502948657347,
            0.0043046074519339644,
            0.010580121942735039,
            0.010889272811340103,
            0.019680974260080787,
            0.018880653737978963,
            -0.008707079404587117,
            0.00766440162627235,
            0.017874548129673304,
            -0.00953666485997941,
            -0.013058461573417845,
            0.0017673136593331473,
            -0.00797327226865843,
            0.023727520762293702,
            0.013756097363433526,
            -0.0067840580918263615,
            0.0025288628943019582,
            0.011121671281482679,
            0.0007428907461251918,
            0.020192957095304758,
            0.011541521442532182,
            -0.0030115163677943146,
            -0.02207054025126426,
            -0.009650528122811877,
            -0.001078631361650803,
            -0.007344752003914844,
            -0.002574458156108877,
            -0.004638871683502651,
            0.0005705960620567578,
            -0.002872396964421787,
            -0.01229279501153704,
            0.00200544997526574,
            -0.006727029425096806
        ],
        [
            -0.015725203324361,
            0.00912019840040794,
            -0.003514136674834597,
            -0.00028058266025485023,
            0.002392174652075238,
            -0.0008259523896167562,
            0.014060755236760971,
            -0.008637630059237058,
            -0.009517842937344959,
            0.010841895505490468,
            0.02108788974251819,
            0.0056741120827295145,
            0.00030171423818730535,
            -0.00823443904193359,
            -0.00541093223120223,
            -0.008951995541711118,
            -0.0034650095632022533,
            0.00492381470892137,
            -0.019116249455010007,
            -0.005280302726326961,
            -0.004086872273652074,
            -0.003270185563939661,
            0.01834330817744561,
            0.0029543966465863936,
            0.012531932871963055,
            -0.015087604586972773,
            0.0020667479408489546,
            -0.009648244710079728,
            -0.007756925117816433,
            0.005624794127119095,
            0.006660228284283745,
            -0.005340186309308779,
            -0.004252628822787189,
            -0.015273201337357567,
            0.011476066746067716,
            -0.0019517126308090161,
            0.0010800312580330437,
            -0.002484416653795431,
            -0.01199451229857581,
            -0.00042900519622670377,
            0.00999918483113767,
            0.009204628913052574,
            -0.0010317517402639261,
            0.0002247623776353218,
            -0.00585521746777713,
            0.020835821760587892,
            0.010338093212144295,
            -0.00040385207883615777,
            0.009685372650074698,
            -0.0030996679707532043,
            0.018186801170287648,
            -0.008214649030093054,
            -0.0037968895545024686,
            -0.0007222370520474687,
            0.012087625722479876,
            0.004671660949742268,
            0.013230104328440953,
            -0.002906322087714539,
            -0.012129749711766358,
            0.00545581521129441,
            -0.011189289394251385,
            -0.015484211641471266,
            -0.006914382454886127,
            0.012417024208285292,
            0.015343864060699795,
            -0.009807752768351809,
            -0.021990579909687995,
            0.01005779065492432,
            0.009596958493822999,
            -0.0002451095100928487,
            0.009573238761978005,
            0.0021828572749601344,
            0.02441016312528536,
            -0.0013034193228200616,
            0.01817199853731919,
            -0.0013219228260766876,
            -0.007167942743885649,
            0.010406650435510659,
            -0.01114967504195502,
            -0.012148200273436292,
            0.028937553732316112,
            -0.016435114089611805,
            -0.0011655039756928824,
            -0.026565032069643058,
            0.007889035559058037,
            -0.015622039462590073,
            -0.02265801087749569,
            0.0019761714249154835,
            -0.008456543430426169,
            0.001119806572963153,
            0.0036391304642317437,
            -0.007626229247468207,
            -0.01258788142521494,
            -0.002211159819294687,
            -0.004630268778883879,
            -0.00958760200038379,
            -0.005290519236034286,
            -0.004555645628657291,
            0.021087484299986265,
            0.016811017257408196,
            -0.00943817282079028,
            -0.015541478699228973,
            0.004162672870636611,
            0.010943986222737755,
            -0.001317055625742911,
            0.0156239987563036,
            0.0022888868741787406,
            0.016191946744047902,
            -0.0064776927052448505,
            -0.0163793558544367,
            -0.007221278803896937,
            0.004601315758180488,
            -0.014446127578135194,
            -0.003142283947092665,
            -0.006606683921348475,
            0.013774049678502823,
            0.0006452412307172341,
            -0.007109060620340388,
            -0.003252283643979509,
            2.320071847170329e-05,
            0.005400553651690652,
            -0.009216590545137944,
            0.007089860252464331,
            0.020037172072976058,
            0.002141539168133573,
            0.0115438843662265,
            -0.0004998994746353554,
            -0.00014766082736133017,
            -0.025411024154702616,
            0.009275102450765545,
            -0.003749715768039716,
            -0.0035857585616347783,
            8.802455945750582e-05,
            -0.005245178620640943
        ],
        [
            0.012694173331489601,
            0.001717693515923958,
            0.015568565771155212,
            0.00710469523859982,
            0.0037728346503836953,
            -0.0039400087005234405,
            0.0306299242272117,
            -0.016580941929424622,
            0.0010302331327684692,
            0.015003817056730952,
            -0.010850221462459154,
            0.002514791158962847,
            -0.022684835302735754,
            0.0002850140035672016,
            -0.013465687743579027,
            0.0027349965391179785,
            -0.0035814251576987716,
            -0.008340676039729223,
            -0.008604918825548062,
            -0.006255431659215083,
            0.020805061525681096,
            0.0028814191159061133,
            0.023118891757355056,
            -0.008620371516405283,
            0.021460464294928122,
            0.013477144788930685,
            -0.003997968402048745,
            0.01368818001109828,
            0.012612056581544021,
            0.001978056976554591,
            -0.004856562078546495,
            0.022929488284930008,
            0.0015204479949179855,
            0.008685890687768968,
            -0.014608874030788295,
            0.004566596350239607,
            0.009930212493804545,
            0.017469498093320043,
            -0.01830422193485777,
            0.0010129977652341515,
            0.0032468812208335425,
            0.0025532993463447894,
            -0.005961305310569031,
            -0.007618419225632706,
            -0.004985590961984359,
            0.016316353710382786,
            0.025800240156823827,
            -0.0001508215893870188,
            0.005357766532565709,
            0.02031592540395599,
            -0.016130572006436708,
            0.006857903215151279,
            0.007947524096507506,
            0.014486757235583273,
            -0.0050398148192552904,
            -0.006951970880030158,
            -0.004802785939431193,
            0.019533356689361753,
            0.004630579621192606,
            0.01275195684325962,
            0.013150245909211836,
            0.008698941897011448,
            -0.00032673674624502036,
            0.02476390482397291,
            -0.002366664609429176,
            0.022882120875411683,
            0.00473647817679413,
            0.008440503636124202,
            0.0007855624436021584,
            0.028520970845789403,
            0.0027854933399742714,
            0.012904409570989093,
            0.025059481540913066,
            -0.016224908545339867,
            0.009977174316123221,
            -0.007013413520013709,
            0.00011441507795059815,
            0.009268616792604238,
            -0.0025726183136350294,
            -0.006705772971780903,
            0.03704523497617008,
            0.007995406144937564,
            -0.0002858890174863121,
            -0.019252438187603117,
            0.02470669390336146,
            0.002671730772302388,
            -0.0015640391248979936,
            0.04458110726854813,
            0.007961323453792996,
            0.008394204335968226,
            0.01815844199305364,
            -0.008530107057513383,
            0.00324394380044514,
            0.016754529972417997,
            -0.0034223946256963277,
            0.008159427611488346,
            0.007657590052566858,
            -0.016714660639896378,
            0.015919720821801795,
            0.012334418698498668,
            0.002049988502907675,
            0.0033240123791129683,
            0.010306474437185785,
            0.01849118434771653,
            0.0011550338252759396,
            0.010935235157661455,
            0.0016771519824470135,
            0.017244232620442515,
            -0.020168521001813287,
            0.002595130882260532,
            0.011863038868259719,
            0.003986377447238043,
            -0.009079708303814028,
            -0.0003192707025212043,
            0.0057705644554466645,
            0.0005016725699539707,
            0.008829981912937749,
            0.019208942465652003,
            -0.008678166363543979,
            0.01015987832778079,
            0.026740109514140204,
            -0.007477241903245212,
            0.013989594541323041,
            0.0013571910843965165,
            0.005932287858812049,
            0.01056167948776812,
            0.038298828925072054,
            0.003734884207189233,
            0.008525891788611807,
            0.01147419060545028,
            -0.008315384894082564,
            -0.021016106433309333,
            0.004080997961044846,
            0.01569069950637259
        ],
        [
            -0.0053670541820727115,
            -0.011326623730495117,
            0.007056606662347982,
            0.007973810483712056,
            0.004565889418526231,
            0.00021645788313365538,
            -0.009594209218780571,
            -0.012179733796945995,
            -0.02732180498470986,
            -0.0010721758054880303,
            0.019191687587935317,
            0.0035628591792703644,
            -0.0017258537956430185,
            -0.020515383837344334,
            -0.01167217772082765,
            -0.0008790636040096369,
            -0.0031506461170251556,
            0.006477793523531925,
            -0.002222938601123124,
            -0.000645420480885589,
            -0.0011421826013137608,
            -0.004735460012601591,
            0.01055022489925417,
            -0.008718498827738147,
            -0.0028305286792145536,
            -0.01447312619654385,
            0.0009673935459673665,
            0.005702132955219329,
            0.005885567741090959,
            0.006844759872744422,
            0.007924820382066166,
            0.005590619253976043,
            0.006366507940379018,
            -0.0015119734706616492,
            -0.01095260993934016,
            0.005260950996672287,
            0.008326634619609738,
            -0.011200547714032272,
            7.844864847679229e-05,
            0.004823942654454591,
            -0.003734764553885792,
            -0.013211065736558692,
            0.00011998149218493811,
            0.01593685559521686,
            -0.011599587515622485,
            -0.002599652874354613,
            -0.013719272908015022,
            -0.006427461288734896,
            0.0023477128105090735,
            0.01322238391596306,
            -0.009447891421528772,
            -0.01216228664329473,
            -0.011122586876149497,
            -0.011492428220294157,
            -0.016530806312041617,
            -0.008512621990105282,
            -0.0017196953104631574,
            -0.018172077581268323,
            0.010525767389578698,
            -0.010821608223888522,
            -0.011453320272693732,
            -0.010173975783389145,
            -0.0035917550508897597,
            -0.003130476336898887,
            0.00516648457295164,
            -0.008528278970347324,
            0.006735026053671744,
            0.008496680069894291,
            -0.004336121628240388,
            -0.006720732762534907,
            0.0013163326683435484,
            -0.012908214709914401,
            0.018789818228143285,
            -0.0010612602917391615,
            0.006708321304524166,
            -0.012671073005022024,
            -0.018436027208146705,
            0.0056739375662078085,
            0.0027613047172906258,
            -0.008242918471318878,
            -0.007926755011169318,
            -0.006799438007764533,
            -0.00032733422955443783,
            -0.006107274890080517,
            -0.01953291746572355,
            0.00218184793350889,
            -0.011347280586874987,
            -0.005804677869466784,
            -0.0016043520807602725,
            -0.014830626782596541,
            0.026893633527094202,
            0.0242497747453344,
            0.006594247229995721,
            0.0015672747590667786,
            -0.010990625691275577,
            0.023218964993420892,
            -0.0024224307294465164,
            -0.011302568856119685,
            0.010841097804189797,
            -0.010357604006678085,
            -0.007766036112085257,
            -0.0059936556697754665,
            -0.006366461170689456,
            -0.0005695294474162682,
            0.003074442065893568,
            0.00060972859010224,
            0.002087524652069704,
            -4.103064215267418e-05,
            0.006975081804500032,
            0.004160216310526975,
            -0.013805978248276552,
            0.005579953464606319,
            -0.01165177246217013,
            -0.015070755907081497,
            0.013241017017713774,
            0.010197918845818532,
            0.004017643058015052,
            -0.006810424373186965,
            0.014540254014658308,
            -0.014600128610633492,
            0.0006739291981889342,
            0.0036530510509967277,
            0.012234398429844515,
            -0.015264276993735632,
            -0.03335283945432439,
            0.001153703132862659,
            0.0011331611567002306,
            0.0017368027267708264,
            -0.01376534566823469,
            -0.00044160799840172794,
            -0.015400790713414785,
            -0.0007869431382674392,
            0.007742078248384078,
            -0.007320318846051872
        ],
        [
            -0.015164322563640056,
            -0.0012899499877964194,
            -0.0019838355508568213,
            -0.008654910114989124,
            0.013043621629330976,
            0.0013859547911853221,
            0.01291477507770748,
            0.002121925227408379,
            -0.007674883782997243,
            0.005657429094001597,
            -0.0025889529818038937,
            -0.016087154821579592,
            0.0032132356213319157,
            0.001976290953835731,
            -0.015578074813416082,
            -0.008075965655032848,
            0.011939287809261767,
            0.006813534991491832,
            0.0063898595369320955,
            0.015263649626801868,
            0.018724622607702888,
            -0.01078573281219705,
            -0.021427609786310326,
            -0.009245095945483305,
            -0.010557334367224218,
            -0.013337252197710082,
            -0.001835516630668657,
            -0.001074460574455689,
            0.006231604826324344,
            -0.013508614601158663,
            -0.001483989166239242,
            0.00024400457997703897,
            -0.004212966472418419,
            -0.023006944319595008,
            -0.006020706223552576,
            -0.007089032847605947,
            -0.022013644058921943,
            -5.9125912329769275e-05,
            0.012047974734192874,
            -0.013287124248628216,
            -0.017334796985416748,
            0.014396916382015037,
            0.009751290015640453,
            -0.017280585326317717,
            -0.009205815428648265,
            -0.00704512052533488,
            -0.01362181645044312,
            -0.005055103166303187,
            0.011388544844668252,
            -0.0061084892564158225,
            -0.018187788950439904,
            0.008257786822513682,
            -0.014052576600099998,
            -0.0004282743745664241,
            0.020356613693361964,
            -0.00016720897077576128,
            0.005927592452859983,
            0.013151044189337657,
            0.00726679966035482,
            0.0013346566585058495,
            0.0002740297268727241,
            0.007298763413831102,
            -0.010191152918120326,
            -0.02347393237193028,
            0.0004357610174829338,
            -0.022336010202982873,
            -0.013004737829259793,
            0.005430786019091279,
            -0.01755410124745866,
            -0.008745049295809017,
            -0.005937866475364588,
            -0.019534051042499542,
            -0.0042926937620339275,
            0.0006320922677275747,
            -0.011651510945365717,
            -0.0011243658457133392,
            -0.016354958470335856,
            0.017432785814721664,
            -0.003033511147770679,
            -0.014342137169891076,
            -0.028702825913421725,
            -0.017264506182560188,
            0.0057181830653503015,
            0.03580013083641585,
            -0.02719273966327496,
            0.013508520358132197,
            0.006365178063643113,
            -0.006740697598302618,
            -0.0005121479001889808,
            -0.0060751047802057425,
            0.0021171383547258157,
            0.013479639592396848,
            0.005288325643853087,
            -0.00763552914794102,
            -0.0049855291470346265,
            -0.009722102421310202,
            -0.009433266669822324,
            0.005318746127930437,
            -0.009128100967507607,
            0.002761366110523281,
            -0.004929920893670436,
            0.005506881754100507,
            0.008253488301157831,
            -0.015380685467430509,
            -0.0018955568857119392,
            0.027979133078113134,
            -0.003480345610304669,
            -0.003794457069710569,
            0.0037173173444999524,
            0.013738467932080932,
            -0.006588554901536533,
            -0.02436672531274616,
            -0.008778517596129493,
            0.012391771246313209,
            0.008216948880797319,
            -0.01113712056622422,
            -0.0160422214539918,
            0.02300882983599544,
            0.011800616837743158,
            -0.015945518000337364,
            0.0002873453591903671,
            0.007228226834002522,
            -0.0027548108296472536,
            0.00970502364931366,
            0.01764366343353587,
            -0.0012876391923726178,
            -0.007741186757955987,
            0.0015029629414808278,
            0.008835857775820223,
            0.0104464226833547,
            0.014219048854429404,
            -0.010821908942363094,
            0.018080307814411428,
            -0.005787539333295567
        ],
        [
            0.01748361966154716,
            -0.012991983408188114,
            0.0011091343732683983,
            -0.0005374354240304166,
            -0.01807820068765873,
            0.00010512053054242704,
            -0.0006348546838051486,
            0.01578913904941558,
            -0.03337944037144923,
            0.006854164476855812,
            -0.0058665979643998745,
            0.00828362086086866,
            -0.017971160923542142,
            0.002855697337842515,
            -0.020848509349244395,
            -0.012336731524814668,
            0.007166843102595768,
            -0.0019177684339106475,
            0.0027713883157577572,
            -0.00547573458350512,
            -0.010911905567541966,
            -0.017369336496119228,
            0.00047722974070600914,
            0.0014724981881122185,
            -0.007036149758564911,
            -0.00793145315094652,
            0.007713352922468743,
            -0.007918435143100762,
            0.013972732585099651,
            -0.0029513532598451114,
            -0.02582234797652329,
            0.004413572186066979,
            0.007272479462103772,
            -0.034145949614776405,
            -0.0032988533326249415,
            0.0027530827954620057,
            0.0034035496225335725,
            -0.01292961328360836,
            -0.007448336647730363,
            0.006003944961151911,
            -0.01776173442141947,
            0.009110824343340162,
            -0.0036583665398201865,
            0.00764502119196767,
            -0.007026202774311522,
            -0.017117648650604528,
            -0.00627027584419676,
            0.006405796710395813,
            -0.018605307372176694,
            -0.012922766213687398,
            -0.007340937016896462,
            -0.010493603216267163,
            0.0033998616731583968,
            -0.00829748055266034,
            -0.00517580525930935,
            0.0021143496899161856,
            -0.02178225097325519,
            -0.0354891099434852,
            0.01594383294291988,
            0.005868847453565396,
            -0.00999109512881263,
            0.010460151208496924,
            0.0011541362712683828,
            0.011926354110145823,
            -0.005846108372814344,
            -0.006575961398094976,
            -0.00790742434074573,
            -0.010490533662436321,
            -3.4683650526992225e-05,
            -0.010056893205985844,
            -0.008752393871449164,
            -0.014546633847165905,
            -0.005636220581843773,
            -0.0020438481436563963,
            0.021154940871160443,
            0.0036821948903367897,
            0.011903232334406804,
            0.00017652552473228656,
            0.001827134378561402,
            -0.01349175206963777,
            -0.006335504309707996,
            -0.0026225387360457133,
            -0.004466266504517681,
            -0.029403240901328277,
            -0.003750810589101583,
            -0.00222612409447839,
            0.006895928169178559,
            -0.002477975061075331,
            0.010839519781997107,
            -0.0004577956766438007,
            -0.005946762577195796,
            -0.012513907568690088,
            -0.007693836244291607,
            -0.020297928722472543,
            0.011693751946873814,
            -0.012718735784146246,
            0.010401527392549108,
            -0.018672463498838568,
            -0.008314450803505213,
            -0.035475231225610346,
            0.005489951251882254,
            -0.019062328456870805,
            -0.004615129705246348,
            -0.004730460875991587,
            -0.0016312500621284975,
            0.005811849443107208,
            -0.02810388661150269,
            0.001203424280078301,
            -0.012178460507591776,
            -0.02718346578616038,
            0.00526322310528759,
            -0.0038437603244278434,
            0.0036866569299588456,
            0.0010463232334045327,
            -0.003442891492802984,
            -0.001428505406983064,
            -0.0022770503295829144,
            -0.02006931918957158,
            -0.014991628617783598,
            0.004328522273782929,
            -0.02088347041684376,
            0.007381162152908787,
            -0.014099711379719632,
            0.00030525287891121366,
            -0.004750793810884003,
            -0.0063673502419062345,
            0.01162588546776034,
            -0.013708535487883826,
            -0.008687157791972972,
            0.0014855654928392613,
            -0.0015118582188059088,
            -0.007637862107589044,
            0.005392538227271283,
            -0.012044774365748984
        ],
        [
            0.013988681545979587,
            0.004851613328717759,
            -0.001888501676911277,
            0.0031193854956718613,
            0.008174016475526092,
            0.014177637975757676,
            0.008265624281977574,
            -0.011626214343860233,
            -0.006519358324064945,
            0.011348492962601346,
            -0.008344983354558086,
            -0.009941591822468015,
            -0.0005951779273492418,
            -0.005038663421261985,
            -0.0014100527915293813,
            0.011650031603762195,
            -0.022477215839493834,
            -0.0017859397454596745,
            -0.002056777237581383,
            -0.007815412473671911,
            0.00454181530039851,
            0.008071251720333574,
            0.008360780809721363,
            -0.0016362288982885473,
            0.0014840290758962127,
            0.0024630100173576685,
            -0.0013296578186014175,
            0.008031787140477633,
            -0.019775344704099643,
            -0.013863575244161644,
            0.01319181540276199,
            0.007957503649133408,
            0.008423494021046321,
            0.005876192506573969,
            -0.021362780183016166,
            0.014984207800639715,
            -0.011513254854372929,
            -0.011496308141932064,
            0.008100655540896007,
            -0.018377879956032434,
            0.00530921212786579,
            0.014143869351560086,
            -0.006344548844651521,
            -0.005297947737532767,
            0.003337081335043449,
            0.011094930859903533,
            0.0003459788045170787,
            -0.018592777584942252,
            0.01669489400520098,
            0.007763809923793248,
            -0.025830421294419287,
            -0.015165633501380109,
            -0.013004427177528522,
            -0.006154465977687191,
            0.001427835761556877,
            -0.006559467632414177,
            0.012744037231126226,
            -0.0038364100298334163,
            -0.0004367228450342322,
            -0.013316823960755257,
            -0.004522022495274208,
            0.0012830430318064934,
            0.005918897848738766,
            -0.0013776772887852578,
            -0.0019873346081923813,
            -0.009374543937754056,
            -0.007013908297560874,
            0.012029453229003971,
            0.018230498725821005,
            -0.00030144729670895877,
            0.0005069044784500296,
            -0.012794972359521251,
            -0.014551739381506798,
            0.0003444004791066206,
            0.00684398046639265,
            0.00663732458042796,
            -0.0005210665669042987,
            0.004112883376573291,
            -0.0007502655671712054,
            0.012444590620289296,
            0.013589753012633238,
            0.015106204932905756,
            0.00793906447995386,
            -0.016568806790269185,
            -0.010733935944544732,
            0.0023881688840041585,
            0.00042306558086083104,
            0.02292734294664519,
            0.008016269512855265,
            -0.009195634787121326,
            -0.00638977673108196,
            0.009509944719280902,
            -0.002584084467407658,
            -0.017217250824222263,
            0.006530124022960611,
            0.005477796379656172,
            -0.003969971726786932,
            -0.002740146901563203,
            -0.002267194154848013,
            0.01085308479778547,
            -0.010382244251166043,
            0.005069811742693445,
            0.008717194669844754,
            0.014785742939773208,
            -0.004635746733789765,
            -0.008236718293279835,
            0.006247374781132818,
            0.005336266508795492,
            -0.008635907023382053,
            -0.005811688653637303,
            0.018137055544148444,
            0.009283877376896173,
            -0.007912762397926727,
            0.010387103634899862,
            -0.01815990263784993,
            0.009141516276939139,
            0.01190035272181965,
            0.0005517644554714957,
            0.0029226516425510103,
            0.0008498412263324461,
            -0.005487381137948245,
            -0.009755232868097152,
            -0.002786813476594679,
            -0.0062201215433926125,
            0.012211828997496794,
            -0.013089285385484243,
            0.019682365362278863,
            -0.0024835340981754542,
            -0.01289873583779115,
            -0.00484960533243489,
            -0.010539052991046169,
            -0.025510023941905727,
            0.007027203438373333,
            -0.0005374398395122221
        ],
        [
            -0.00556257847565025,
            -0.03415364941134959,
            -0.01694815012297358,
            -0.011658529651299692,
            -0.008109603659291299,
            -0.01896277930424392,
            0.0031834774285453625,
            -0.00883021730366859,
            -0.01352162151866469,
            0.024481130391501196,
            -0.001447931144765984,
            0.005270429193329542,
            -0.0006313162867064457,
            -0.007954389347419866,
            -0.01625867254338173,
            -0.01783965836317182,
            0.0007910209971881948,
            -0.0050725720268767075,
            0.02949815288617118,
            -0.033328825592958404,
            0.01727927348403675,
            -0.00692804192740875,
            0.023479212321929614,
            -0.014112934668388918,
            0.010122489738112727,
            0.01774910593617337,
            0.00565973205432593,
            -0.027976912949290656,
            0.000141371007300245,
            0.020458220122382045,
            -0.006913085383825598,
            0.01807633707478566,
            0.004361866552326169,
            -0.02232332364007467,
            -0.008248275939563185,
